{"learner":{"attributes":{"best_iteration":"190","best_score":"0.9615371146879624"},"feature_names":[],"feature_types":[],"gradient_booster":{"model":{"gbtree_model_param":{"num_parallel_tree":"1","num_trees":"2110"},"iteration_indptr":[0,10,20,30,40,50,60,70,80,90,100,110,120,130,140,150,160,170,180,190,200,210,220,230,240,250,260,270,280,290,300,310,320,330,340,350,360,370,380,390,400,410,420,430,440,450,460,470,480,490,500,510,520,530,540,550,560,570,580,590,600,610,620,630,640,650,660,670,680,690,700,710,720,730,740,750,760,770,780,790,800,810,820,830,840,850,860,870,880,890,900,910,920,930,940,950,960,970,980,990,1000,1010,1020,1030,1040,1050,1060,1070,1080,1090,1100,1110,1120,1130,1140,1150,1160,1170,1180,1190,1200,1210,1220,1230,1240,1250,1260,1270,1280,1290,1300,1310,1320,1330,1340,1350,1360,1370,1380,1390,1400,1410,1420,1430,1440,1450,1460,1470,1480,1490,1500,1510,1520,1530,1540,1550,1560,1570,1580,1590,1600,1610,1620,1630,1640,1650,1660,1670,1680,1690,1700,1710,1720,1730,1740,1750,1760,1770,1780,1790,1800,1810,1820,1830,1840,1850,1860,1870,1880,1890,1900,1910,1920,1930,1940,1950,1960,1970,1980,1990,2000,2010,2020,2030,2040,2050,2060,2070,2080,2090,2100,2110],"tree_info":[0,1,2,3,4,5,6,7,8,9,0,1,2,3,4,5,6,7,8,9,0,1,2,3,4,5,6,7,8,9,0,1,2,3,4,5,6,7,8,9,0,1,2,3,4,5,6,7,8,9,0,1,2,3,4,5,6,7,8,9,0,1,2,3,4,5,6,7,8,9,0,1,2,3,4,5,6,7,8,9,0,1,2,3,4,5,6,7,8,9,0,1,2,3,4,5,6,7,8,9,0,1,2,3,4,5,6,7,8,9,0,1,2,3,4,5,6,7,8,9,0,1,2,3,4,5,6,7,8,9,0,1,2,3,4,5,6,7,8,9,0,1,2,3,4,5,6,7,8,9,0,1,2,3,4,5,6,7,8,9,0,1,2,3,4,5,6,7,8,9,0,1,2,3,4,5,6,7,8,9,0,1,2,3,4,5,6,7,8,9,0,1,2,3,4,5,6,7,8,9,0,1,2,3,4,5,6,7,8,9,0,1,2,3,4,5,6,7,8,9,0,1,2,3,4,5,6,7,8,9,0,1,2,3,4,5,6,7,8,9,0,1,2,3,4,5,6,7,8,9,0,1,2,3,4,5,6,7,8,9,0,1,2,3,4,5,6,7,8,9,0,1,2,3,4,5,6,7,8,9,0,1,2,3,4,5,6,7,8,9,0,1,2,3,4,5,6,7,8,9,0,1,2,3,4,5,6,7,8,9,0,1,2,3,4,5,6,7,8,9,0,1,2,3,4,5,6,7,8,9,0,1,2,3,4,5,6,7,8,9,0,1,2,3,4,5,6,7,8,9,0,1,2,3,4,5,6,7,8,9,0,1,2,3,4,5,6,7,8,9,0,1,2,3,4,5,6,7,8,9,0,1,2,3,4,5,6,7,8,9,0,1,2,3,4,5,6,7,8,9,0,1,2,3,4,5,6,7,8,9,0,1,2,3,4,5,6,7,8,9,0,1,2,3,4,5,6,7,8,9,0,1,2,3,4,5,6,7,8,9,0,1,2,3,4,5,6,7,8,9,0,1,2,3,4,5,6,7,8,9,0,1,2,3,4,5,6,7,8,9,0,1,2,3,4,5,6,7,8,9,0,1,2,3,4,5,6,7,8,9,0,1,2,3,4,5,6,7,8,9,0,1,2,3,4,5,6,7,8,9,0,1,2,3,4,5,6,7,8,9,0,1,2,3,4,5,6,7,8,9,0,1,2,3,4,5,6,7,8,9,0,1,2,3,4,5,6,7,8,9,0,1,2,3,4,5,6,7,8,9,0,1,2,3,4,5,6,7,8,9,0,1,2,3,4,5,6,7,8,9,0,1,2,3,4,5,6,7,8,9,0,1,2,3,4,5,6,7,8,9,0,1,2,3,4,5,6,7,8,9,0,1,2,3,4,5,6,7,8,9,0,1,2,3,4,5,6,7,8,9,0,1,2,3,4,5,6,7,8,9,0,1,2,3,4,5,6,7,8,9,0,1,2,3,4,5,6,7,8,9,0,1,2,3,4,5,6,7,8,9,0,1,2,3,4,5,6,7,8,9,0,1,2,3,4,5,6,7,8,9,0,1,2,3,4,5,6,7,8,9,0,1,2,3,4,5,6,7,8,9,0,1,2,3,4,5,6,7,8,9,0,1,2,3,4,5,6,7,8,9,0,1,2,3,4,5,6,7,8,9,0,1,2,3,4,5,6,7,8,9,0,1,2,3,4,5,6,7,8,9,0,1,2,3,4,5,6,7,8,9,0,1,2,3,4,5,6,7,8,9,0,1,2,3,4,5,6,7,8,9,0,1,2,3,4,5,6,7,8,9,0,1,2,3,4,5,6,7,8,9,0,1,2,3,4,5,6,7,8,9,0,1,2,3,4,5,6,7,8,9,0,1,2,3,4,5,6,7,8,9,0,1,2,3,4,5,6,7,8,9,0,1,2,3,4,5,6,7,8,9,0,1,2,3,4,5,6,7,8,9,0,1,2,3,4,5,6,7,8,9,0,1,2,3,4,5,6,7,8,9,0,1,2,3,4,5,6,7,8,9,0,1,2,3,4,5,6,7,8,9,0,1,2,3,4,5,6,7,8,9,0,1,2,3,4,5,6,7,8,9,0,1,2,3,4,5,6,7,8,9,0,1,2,3,4,5,6,7,8,9,0,1,2,3,4,5,6,7,8,9,0,1,2,3,4,5,6,7,8,9,0,1,2,3,4,5,6,7,8,9,0,1,2,3,4,5,6,7,8,9,0,1,2,3,4,5,6,7,8,9,0,1,2,3,4,5,6,7,8,9,0,1,2,3,4,5,6,7,8,9,0,1,2,3,4,5,6,7,8,9,0,1,2,3,4,5,6,7,8,9,0,1,2,3,4,5,6,7,8,9,0,1,2,3,4,5,6,7,8,9,0,1,2,3,4,5,6,7,8,9,0,1,2,3,4,5,6,7,8,9,0,1,2,3,4,5,6,7,8,9,0,1,2,3,4,5,6,7,8,9,0,1,2,3,4,5,6,7,8,9,0,1,2,3,4,5,6,7,8,9,0,1,2,3,4,5,6,7,8,9,0,1,2,3,4,5,6,7,8,9,0,1,2,3,4,5,6,7,8,9,0,1,2,3,4,5,6,7,8,9,0,1,2,3,4,5,6,7,8,9,0,1,2,3,4,5,6,7,8,9,0,1,2,3,4,5,6,7,8,9,0,1,2,3,4,5,6,7,8,9,0,1,2,3,4,5,6,7,8,9,0,1,2,3,4,5,6,7,8,9,0,1,2,3,4,5,6,7,8,9,0,1,2,3,4,5,6,7,8,9,0,1,2,3,4,5,6,7,8,9,0,1,2,3,4,5,6,7,8,9,0,1,2,3,4,5,6,7,8,9,0,1,2,3,4,5,6,7,8,9,0,1,2,3,4,5,6,7,8,9,0,1,2,3,4,5,6,7,8,9,0,1,2,3,4,5,6,7,8,9,0,1,2,3,4,5,6,7,8,9,0,1,2,3,4,5,6,7,8,9,0,1,2,3,4,5,6,7,8,9,0,1,2,3,4,5,6,7,8,9,0,1,2,3,4,5,6,7,8,9,0,1,2,3,4,5,6,7,8,9,0,1,2,3,4,5,6,7,8,9,0,1,2,3,4,5,6,7,8,9,0,1,2,3,4,5,6,7,8,9,0,1,2,3,4,5,6,7,8,9,0,1,2,3,4,5,6,7,8,9,0,1,2,3,4,5,6,7,8,9,0,1,2,3,4,5,6,7,8,9,0,1,2,3,4,5,6,7,8,9,0,1,2,3,4,5,6,7,8,9,0,1,2,3,4,5,6,7,8,9,0,1,2,3,4,5,6,7,8,9,0,1,2,3,4,5,6,7,8,9,0,1,2,3,4,5,6,7,8,9,0,1,2,3,4,5,6,7,8,9,0,1,2,3,4,5,6,7,8,9,0,1,2,3,4,5,6,7,8,9,0,1,2,3,4,5,6,7,8,9,0,1,2,3,4,5,6,7,8,9,0,1,2,3,4,5,6,7,8,9,0,1,2,3,4,5,6,7,8,9,0,1,2,3,4,5,6,7,8,9,0,1,2,3,4,5,6,7,8,9,0,1,2,3,4,5,6,7,8,9,0,1,2,3,4,5,6,7,8,9,0,1,2,3,4,5,6,7,8,9,0,1,2,3,4,5,6,7,8,9,0,1,2,3,4,5,6,7,8,9,0,1,2,3,4,5,6,7,8,9,0,1,2,3,4,5,6,7,8,9,0,1,2,3,4,5,6,7,8,9,0,1,2,3,4,5,6,7,8,9,0,1,2,3,4,5,6,7,8,9,0,1,2,3,4,5,6,7,8,9,0,1,2,3,4,5,6,7,8,9,0,1,2,3,4,5,6,7,8,9,0,1,2,3,4,5,6,7,8,9,0,1,2,3,4,5,6,7,8,9,0,1,2,3,4,5,6,7,8,9,0,1,2,3,4,5,6,7,8,9,0,1,2,3,4,5,6,7,8,9,0,1,2,3,4,5,6,7,8,9,0,1,2,3,4,5,6,7,8,9,0,1,2,3,4,5,6,7,8,9,0,1,2,3,4,5,6,7,8,9,0,1,2,3,4,5,6,7,8,9,0,1,2,3,4,5,6,7,8,9,0,1,2,3,4,5,6,7,8,9,0,1,2,3,4,5,6,7,8,9,0,1,2,3,4,5,6,7,8,9,0,1,2,3,4,5,6,7,8,9,0,1,2,3,4,5,6,7,8,9,0,1,2,3,4,5,6,7,8,9,0,1,2,3,4,5,6,7,8,9,0,1,2,3,4,5,6,7,8,9,0,1,2,3,4,5,6,7,8,9,0,1,2,3,4,5,6,7,8,9,0,1,2,3,4,5,6,7,8,9,0,1,2,3,4,5,6,7,8,9,0,1,2,3,4,5,6,7,8,9,0,1,2,3,4,5,6,7,8,9,0,1,2,3,4,5,6,7,8,9,0,1,2,3,4,5,6,7,8,9,0,1,2,3,4,5,6,7,8,9,0,1,2,3,4,5,6,7,8,9,0,1,2,3,4,5,6,7,8,9,0,1,2,3,4,5,6,7,8,9,0,1,2,3,4,5,6,7,8,9,0,1,2,3,4,5,6,7,8,9,0,1,2,3,4,5,6,7,8,9,0,1,2,3,4,5,6,7,8,9,0,1,2,3,4,5,6,7,8,9,0,1,2,3,4,5,6,7,8,9,0,1,2,3,4,5,6,7,8,9,0,1,2,3,4,5,6,7,8,9],"trees":[{"base_weights":[-2.1468645E-3,2.7797513E0,-3.7997591E-1,2.108355E-1,-2.1739133E-1,-4.7251078E-1,1.1693548E0,-1.9886365E-2,9.615384E-3,4.1420117E-1,-2.7398199E-2,1.1577181E-1,-1.8456377E-2,8.2214765E-2,-2.196653E-2],"categories":[],"categories_nodes":[],"categories_segments":[],"categories_sizes":[],"default_left":[0,0,0,0,0,0,0,0,0,0,0,0,0,0,0],"id":0,"left_children":[1,3,5,-1,7,9,11,-1,-1,13,-1,-1,-1,-1,-1],"loss_changes":[9.897504E1,4.941091E1,1.2437668E1,0E0,4.1634992E-1,5.508465E0,9.600291E0,0E0,0E0,7.8198767E0,0E0,0E0,0E0,0E0,0E0],"parents":[2147483647,0,0,1,1,2,2,4,4,5,5,6,6,9,9],"right_children":[2,4,6,-1,8,10,12,-1,-1,14,-1,-1,-1,-1,-1],"split_conditions":[-2.6117126E1,5.333159E-2,3.5533494E-1,2.108355E-1,2.1084851E2,-1.1665744E1,6.6677E0,-1.9886365E-2,9.615384E-3,2.9516174E1,-2.7398199E-2,1.1577181E-1,-1.8456377E-2,8.2214765E-2,-2.196653E-2],"split_indices":[5,64,47,0,1,5,21,0,0,13,0,0,0,0,0],"split_type":[0,0,0,0,0,0,0,0,0,0,0,0,0,0,0],"sum_hessian":[9.2159996E1,1.0259999E1,8.1899994E1,6.66E0,3.6E0,7.7939995E1,3.9599998E0,2.52E0,1.0799999E0,5.7599998E0,7.218E1,1.9799999E0,1.9799999E0,1.9799999E0,3.7799997E0],"tree_param":{"num_deleted":"0","num_feature":"80","num_nodes":"15","size_leaf_vector":"1"}},{"base_weights":[2.1978002E-2,1.1475409E0,-3.8461542E-1,1.3129102E-1,3.5955057E0,-4.4197237E-1,8.1730776E-2,-4.469274E-1,1.7741935E0,9.615384E-3,2.0860927E-1,4.6875E-1,-5.3010476E-1,9.615384E-3,-2.5679762E-2,-1.8456377E-2,1.6610739E-1,1.1725664E-1,-2.2373542E-2,-2.7315125E-2,9.615384E-3],"categories":[],"categories_nodes":[],"categories_segments":[],"categories_sizes":[],"default_left":[0,0,0,0,0,0,0,0,0,0,0,0,0,0,0,0,0,0,0,0,0],"id":1,"left_children":[1,3,5,7,9,11,-1,13,15,-1,-1,17,19,-1,-1,-1,-1,-1,-1,-1,-1],"loss_changes":[4.208719E1,6.02289E1,8.551679E0,1.8158138E1,1.3171043E1,5.587656E0,0E0,7.0903516E-1,1.7682398E1,0E0,0E0,1.2052135E1,8.202534E-1,0E0,0E0,0E0,0E0,0E0,0E0,0E0,0E0],"parents":[2147483647,0,0,1,1,2,2,3,3,4,4,5,5,7,7,8,8,11,11,12,12],"right_children":[2,4,6,8,10,12,-1,14,16,-1,-1,18,20,-1,-1,-1,-1,-1,-1,-1,-1],"split_conditions":[3.6339595E0,1.5851769E1,1.2565427E1,1.07803345E-1,1.2439392E1,2.3013641E-1,8.1730776E-2,1.1765327E2,1.0551568E-2,9.615384E-3,2.0860927E-1,2.3531926E0,7.0034904E1,9.615384E-3,-2.5679762E-2,-1.8456377E-2,1.6610739E-1,1.1725664E-1,-2.2373542E-2,-2.7315125E-2,9.615384E-3],"split_indices":[60,17,63,64,50,41,0,1,66,0,0,62,56,0,0,0,0,0,0,0,0],"split_type":[0,0,0,0,0,0,0,0,0,0,0,0,0,0,0,0,0,0,0,0,0],"sum_hessian":[8.999999E1,2.34E1,6.66E1,1.7279999E1,6.12E0,6.552E1,1.0799999E0,1.332E1,3.9599998E0,1.0799999E0,5.04E0,5.3999996E0,6.012E1,1.0799999E0,1.224E1,1.9799999E0,1.9799999E0,1.26E0,4.14E0,5.9039997E1,1.0799999E0],"tree_param":{"num_deleted":"0","num_feature":"80","num_nodes":"21","size_leaf_vector":"1"}},{"base_weights":[-2.2585522E-2,-2.7366865E-2,1.3229719E0,-3.0085963E-1,2.9135618E0,-2.5526745E-2,4.0076338E-2,-1.7241381E-1,3.841699E0,-1.8456377E-2,9.615384E-3,2.4590163E-2,2.1636772E-1],"categories":[],"categories_nodes":[],"categories_segments":[],"categories_sizes":[],"default_left":[0,0,0,0,0,0,0,0,0,0,0,0,0],"id":2,"left_children":[1,-1,3,5,7,-1,-1,9,11,-1,-1,-1,-1],"loss_changes":[6.637577E1,0E0,6.901216E1,3.6359658E0,3.9100037E1,0E0,0E0,3.622737E-1,1.4726425E1,0E0,0E0,0E0,0E0],"parents":[2147483647,0,0,2,2,3,3,4,4,7,7,8,8],"right_children":[2,-1,4,6,8,-1,-1,10,12,-1,-1,-1,-1],"split_conditions":[3.641971E1,-2.7366865E-2,8.115868E-2,5.72319E1,-3.2923884E0,-2.5526745E-2,4.0076338E-2,-7.950772E1,3.3203042E0,-1.8456377E-2,9.615384E-3,2.4590163E-2,2.1636772E-1],"split_indices":[15,0,64,56,7,0,0,2,58,0,0,0,0],"split_type":[0,0,0,0,0,0,0,0,0,0,0,0,0],"sum_hessian":[9.1979996E1,6.66E1,2.538E1,1.2959999E1,1.2419999E1,1.1339999E1,1.6199999E0,3.06E0,9.36E0,1.9799999E0,1.0799999E0,1.4399999E0,7.9199996E0],"tree_param":{"num_deleted":"0","num_feature":"80","num_nodes":"13","size_leaf_vector":"1"}},{"base_weights":[-3.2707345E-2,2.0440729E-1,-3.363229E-1,-5.111222E-1,1.0707269E0,5.088496E-2,-2.742509E-2,1.6017964E-1,2.5510186E-2,-2.3668641E-2,8.1730776E-2],"categories":[],"categories_nodes":[],"categories_segments":[],"categories_sizes":[],"default_left":[0,0,0,0,0,0,0,0,0,0,0],"id":3,"left_children":[1,-1,3,5,7,-1,-1,-1,9,-1,-1],"loss_changes":[1.1995941E2,0E0,2.2486134E1,5.1310883E0,2.261262E1,0E0,0E0,0E0,7.067383E0,0E0,0E0],"parents":[2147483647,0,0,2,2,3,3,4,4,8,8],"right_children":[2,-1,4,6,8,-1,-1,-1,10,-1,-1],"split_conditions":[1.875676E-1,2.0440729E-1,6.9097576E0,-2.1494081E1,-7.182956E0,5.088496E-2,-2.742509E-2,1.6017964E-1,4.776822E0,-2.3668641E-2,8.1730776E-2],"split_indices":[35,0,61,7,7,0,0,0,8,0,0],"split_type":[0,0,0,0,0,0,0,0,0,0,0],"sum_hessian":[9.378E1,5.58E0,8.82E1,7.902E1,9.179999E0,1.26E0,7.7759995E1,2.34E0,6.8399997E0,5.7599998E0,1.0799999E0],"tree_param":{"num_deleted":"0","num_feature":"80","num_nodes":"11","size_leaf_vector":"1"}},{"base_weights":[1.1650054E-2,1.519337E0,-3.414382E-1,3.262032E0,2.667814E-1,1.219512E-1,-5.274567E-1,2.017685E-1,-1.5486727E-2,-3.6159605E-1,1.3043479E0,1.4754099E-1,-2.04461E-1,-1.546392E-1,-2.7248478E-2,9.615384E-3,-2.3775218E-2,1.1577181E-1,-1.7175574E-2,7.66129E-1,-4.669704E-1,9.615384E-3,-1.7857144E-2,-1.9886365E-2,1.06557384E-1,9.615384E-3,-2.6092235E-2],"categories":[],"categories_nodes":[],"categories_segments":[],"categories_sizes":[],"default_left":[0,0,0,0,0,0,0,0,0,0,0,0,0,0,0,0,0,0,0,0,0,0,0,0,0,0,0],"id":4,"left_children":[1,3,5,7,9,11,13,-1,-1,15,17,-1,19,21,-1,-1,-1,-1,-1,23,25,-1,-1,-1,-1,-1,-1],"loss_changes":[5.0782925E1,3.8638832E1,6.72923E0,2.1911003E1,8.047692E0,2.1804064E1,2.7717686E-1,0E0,0E0,5.9745884E-1,8.459583E0,0E0,5.8408194E0,3.4128243E-1,0E0,0E0,0E0,0E0,0E0,8.727494E0,7.356293E-1,0E0,0E0,0E0,0E0,0E0,0E0],"parents":[2147483647,0,0,1,1,2,2,3,3,4,4,5,5,6,6,9,9,10,10,12,12,13,13,19,19,20,20],"right_children":[2,4,6,8,10,12,14,-1,-1,16,18,-1,20,22,-1,-1,-1,-1,-1,24,26,-1,-1,-1,-1,-1,-1],"split_conditions":[1.4297935E1,2.5444299E-2,1.5130328E-2,1.4682497E2,3.3548512E0,2.679957E-1,5.993363E0,2.017685E-1,-1.5486727E-2,1.4110861E1,-1.1906215E0,1.4754099E-1,1.4901389E1,-1.7856909E1,-2.7248478E-2,9.615384E-3,-2.3775218E-2,1.1577181E-1,-1.7175574E-2,1.3794748E1,3.1402415E-1,9.615384E-3,-1.7857144E-2,-1.9886365E-2,1.06557384E-1,9.615384E-3,-2.6092235E-2],"split_indices":[53,65,66,1,60,32,21,0,0,14,12,0,53,4,0,0,0,0,0,50,34,0,0,0,0,0,0],"split_type":[0,0,0,0,0,0,0,0,0,0,0,0,0,0,0,0,0,0,0,0,0,0,0,0,0,0,0],"sum_hessian":[9.342E1,1.7099998E1,7.632E1,6.4799995E0,1.062E1,2.196E1,5.4359997E1,5.22E0,1.26E0,7.0199995E0,3.6E0,1.4399999E0,2.0519999E1,2.8799999E0,5.148E1,1.0799999E0,5.9399996E0,1.9799999E0,1.6199999E0,3.9599998E0,1.656E1,1.0799999E0,1.8E0,2.52E0,1.4399999E0,1.0799999E0,1.548E1],"tree_param":{"num_deleted":"0","num_feature":"80","num_nodes":"27","size_leaf_vector":"1"}},{"base_weights":[-1.1605845E-2,1.7586207E0,-3.272638E-1,-2.3690775E-1,3.6631017E0,-4.4253635E-1,1.0486323E0,3.3653848E-2,-2.3775218E-2,2.03125E-1,3.3653848E-2,1.1538461E0,-5.340344E-1,-2.196653E-2,1.6071428E-1,-1.8987343E-2,1.3938053E-1,1.9083964E-3,-2.738466E-2],"categories":[],"categories_nodes":[],"categories_segments":[],"categories_sizes":[],"default_left":[0,0,0,0,0,0,0,0,0,0,0,0,0,0,0,0,0,0,0],"id":5,"left_children":[1,3,5,7,9,11,13,-1,-1,-1,-1,15,17,-1,-1,-1,-1,-1,-1],"loss_changes":[5.3537273E1,5.597428E1,1.3355312E1,2.0613472E0,6.198326E0,1.1673373E1,2.2615602E1,0E0,0E0,0E0,0E0,1.2133028E1,5.8581924E-1,0E0,0E0,0E0,0E0,0E0,0E0],"parents":[2147483647,0,0,1,1,2,2,3,3,4,4,5,5,6,6,11,11,12,12],"right_children":[2,4,6,8,10,12,14,-1,-1,-1,-1,16,18,-1,-1,-1,-1,-1,-1],"split_conditions":[2.0214975E0,1.8014706E1,2.2892643E1,3.2497077E0,1.6866126E0,-4.119107E1,1.6359715E1,3.3653848E-2,-2.3775218E-2,2.03125E-1,3.3653848E-2,1.4341576E2,1.4576995E1,-2.196653E-2,1.6071428E-1,-1.8987343E-2,1.3938053E-1,1.9083964E-3,-2.738466E-2],"split_indices":[62,14,7,5,11,4,16,0,0,0,0,1,55,0,0,0,0,0,0],"split_type":[0,0,0,0,0,0,0,0,0,0,0,0,0,0,0,0,0,0,0],"sum_hessian":[9.378E1,1.3499999E1,8.028E1,7.0199995E0,6.4799995E0,7.47E1,5.58E0,1.0799999E0,5.9399996E0,5.3999996E0,1.0799999E0,3.4199998E0,7.128E1,3.7799997E0,1.8E0,2.1599998E0,1.26E0,1.6199999E0,6.9659996E1],"tree_param":{"num_deleted":"0","num_feature":"80","num_nodes":"19","size_leaf_vector":"1"}},{"base_weights":[2.780152E-2,2.125141E0,-4.5715034E-1,4.048626E0,-6.465519E-2,-5.084746E-1,7.300885E-2,2.2016707E-1,3.3653848E-2,8.1730776E-2,-2.4390245E-2,-5.346082E-1,2.8761063E-2,-2.7398199E-2,9.615384E-3],"categories":[],"categories_nodes":[],"categories_segments":[],"categories_sizes":[],"default_left":[0,0,0,0,0,0,0,0,0,0,0,0,0,0,0],"id":6,"left_children":[1,3,5,7,9,11,-1,-1,-1,-1,-1,13,-1,-1,-1],"loss_changes":[9.60915E1,7.4983345E1,8.298033E0,8.363235E0,7.4701185E0,2.4463081E0,0E0,0E0,0E0,0E0,0E0,8.263321E-1,0E0,0E0,0E0],"parents":[2147483647,0,0,1,1,2,2,3,3,4,4,5,5,11,11],"right_children":[2,4,6,8,10,12,-1,-1,-1,-1,-1,14,-1,-1,-1],"split_conditions":[1.1367786E1,4.933381E-1,2.2243314E2,3.6610424E1,1.2895345E1,1.9214077E1,7.300885E-2,2.2016707E-1,3.3653848E-2,8.1730776E-2,-2.4390245E-2,1.5759337E-1,2.8761063E-2,-2.7398199E-2,9.615384E-3],"split_indices":[52,28,1,13,14,10,0,0,0,0,0,69,0,0,0],"split_type":[0,0,0,0,0,0,0,0,0,0,0,0,0,0,0],"sum_hessian":[9.252E1,1.674E1,7.578E1,8.46E0,8.28E0,7.452E1,1.26E0,7.3799996E0,1.0799999E0,1.0799999E0,7.2E0,7.3259995E1,1.26E0,7.218E1,1.0799999E0],"tree_param":{"num_deleted":"0","num_feature":"80","num_nodes":"15","size_leaf_vector":"1"}},{"base_weights":[4.0790018E-2,-1.3452917E-1,3.185484E0,-3.781733E-1,1.226415E0,1.85567E-1,3.3653848E-2,-4.550293E-1,1.1725664E-1,2.3815463E0,-3.254438E-1,-5.0660795E-1,7.386364E-1,3.415493E0,-8.982038E-2,9.615384E-3,-2.2887325E-2,-5.334847E-1,2.5316453E-1,8.1730776E-2,-1.6393444E-2,3.3653848E-2,1.9565217E-1,-1.5486727E-2,9.615384E-3,-2.7377522E-2,9.615384E-3,-1.4423077E-2,3.3653848E-2],"categories":[],"categories_nodes":[],"categories_segments":[],"categories_sizes":[],"default_left":[0,0,0,0,0,0,0,0,0,0,0,0,0,0,0,0,0,0,0,0,0,0,0,0,0,0,0,0,0],"id":7,"left_children":[1,3,5,7,9,-1,-1,11,-1,13,15,17,19,21,23,-1,-1,25,27,-1,-1,-1,-1,-1,-1,-1,-1,-1,-1],"loss_changes":[5.178999E1,3.0041273E1,4.054962E0,1.7061996E1,2.5477093E1,0E0,0E0,5.001623E0,0E0,2.0799976E1,5.5108774E-1,1.6183853E0,3.8995328E0,5.1165237E0,2.667911E-1,0E0,0E0,8.2481766E-1,9.1285294E-1,0E0,0E0,0E0,0E0,0E0,0E0,0E0,0E0,0E0,0E0],"parents":[2147483647,0,0,1,1,2,2,3,3,4,4,7,7,9,9,10,10,11,11,12,12,13,13,14,14,17,17,18,18],"right_children":[2,4,6,8,10,-1,-1,12,-1,14,16,18,20,22,24,-1,-1,26,28,-1,-1,-1,-1,-1,-1,-1,-1,-1,-1],"split_conditions":[9.332614E0,3.5000613E-1,7.887185E1,1.8362652E1,8.655994E0,1.85567E-1,3.3653848E-2,3.7957863E1,1.1725664E-1,4.131649E0,8.245784E1,1.933882E1,1.568912E1,8.862749E0,-3.4063226E2,9.615384E-3,-2.2887325E-2,3.517595E-1,-4.6401273E2,8.1730776E-2,-1.6393444E-2,3.3653848E-2,1.9565217E-1,-1.5486727E-2,9.615384E-3,-2.7377522E-2,9.615384E-3,-1.4423077E-2,3.3653848E-2],"split_indices":[60,38,1,51,21,0,0,55,0,57,1,50,7,51,0,0,0,46,0,0,0,0,0,0,0,0,0,0,0],"split_type":[0,0,0,0,0,0,0,0,0,0,0,0,0,0,0,0,0,0,0,0,0,0,0,0,0,0,0,0,0],"sum_hessian":[9.2159996E1,8.82E1,3.9599998E0,7.542E1,1.278E1,2.8799999E0,1.0799999E0,7.4159996E1,1.26E0,7.0199995E0,5.7599998E0,7.164E1,2.52E0,4.68E0,2.34E0,1.0799999E0,4.68E0,6.9479996E1,2.1599998E0,1.0799999E0,1.4399999E0,1.0799999E0,3.6E0,1.26E0,1.0799999E0,6.8399994E1,1.0799999E0,1.0799999E0,1.0799999E0],"tree_param":{"num_deleted":"0","num_feature":"80","num_nodes":"29","size_leaf_vector":"1"}},{"base_weights":[-3.4349527E-2,-4.8581475E-1,2.4482758E0,-5.356687E-1,6.5573774E-2,4.0301723E0,-3.0546626E-1,-2.7417684E-2,9.615384E-3,3.3653848E-2,2.1951221E-1,-2.2373542E-2,9.615384E-3],"categories":[],"categories_nodes":[],"categories_segments":[],"categories_sizes":[],"default_left":[0,0,0,0,0,0,0,0,0,0,0,0,0],"id":8,"left_children":[1,3,5,7,-1,9,11,-1,-1,-1,-1,-1,-1],"loss_changes":[1.05604904E2,7.840208E0,6.4395035E1,8.277645E-1,0E0,8.262634E0,5.257202E-1,0E0,0E0,0E0,0E0,0E0,0E0],"parents":[2147483647,0,0,1,1,2,2,3,3,5,5,6,6],"right_children":[2,4,6,8,-1,10,12,-1,-1,-1,-1,-1,-1],"split_conditions":[6.114221E-1,6.5347964E-1,1.15596285E1,1.7681622E1,6.5573774E-2,1.7437725E1,1.403901E2,-2.7417684E-2,9.615384E-3,3.3653848E-2,2.1951221E-1,-2.2373542E-2,9.615384E-3],"split_indices":[29,33,50,12,0,3,1,0,0,0,0,0,0],"split_type":[0,0,0,0,0,0,0,0,0,0,0,0,0],"sum_hessian":[9.2159996E1,7.8659996E1,1.3499999E1,7.721999E1,1.4399999E0,8.28E0,5.22E0,7.614E1,1.0799999E0,1.0799999E0,7.2E0,4.14E0,1.0799999E0],"tree_param":{"num_deleted":"0","num_feature":"80","num_nodes":"13","size_leaf_vector":"1"}},{"base_weights":[-3.3340525E-2,8.690569E-1,-3.717799E-1,-2.5735294E-2,2.2434916E0,-4.5426455E-1,8.695652E-1,3.3836207E0,-2.196653E-2,-4.9936792E-1,4.508197E-2,9.7328246E-2,-1.8456377E-2,-1.7175574E-2,2.108355E-1,-2.7305206E-2,9.090908E-2,-2.1493215E-2,5.7692308E-2],"categories":[],"categories_nodes":[],"categories_segments":[],"categories_sizes":[],"default_left":[0,0,0,0,0,0,0,0,0,0,0,0,0,0,0,0,0,0,0],"id":9,"left_children":[1,3,5,-1,7,9,11,13,-1,15,-1,-1,-1,-1,-1,-1,17,-1,-1],"loss_changes":[2.871982E1,4.9957275E1,7.3904305E0,0E0,4.1433983E1,4.4082546E0,6.85526E0,3.0263206E1,0E0,1.795371E0,0E0,0E0,0E0,0E0,0E0,0E0,3.5405185E0,0E0,0E0],"parents":[2147483647,0,0,1,1,2,2,4,4,5,5,6,6,7,7,9,9,16,16],"right_children":[2,4,6,-1,8,10,12,14,-1,16,-1,-1,-1,-1,-1,-1,18,-1,-1],"split_conditions":[4.3005165E-2,8.96687E0,1.7420332E1,-2.5735294E-2,1.2213718E1,7.816601E1,-3.230061E0,2.4745485E-1,-2.196653E-2,1.7539265E1,4.508197E-2,9.7328246E-2,-1.8456377E-2,-1.7175574E-2,2.108355E-1,-2.7305206E-2,-3.4486697E2,-2.1493215E-2,5.7692308E-2],"split_indices":[64,19,2,0,2,14,12,48,0,50,0,0,0,0,0,0,0,0,0],"split_type":[0,0,0,0,0,0,0,0,0,0,0,0,0,0,0,0,0,0,0],"sum_hessian":[9.1979996E1,2.466E1,6.732E1,1.2599999E1,1.2059999E1,6.3719997E1,3.6E0,8.28E0,3.7799997E0,6.228E1,1.4399999E0,1.6199999E0,1.9799999E0,1.6199999E0,6.66E0,5.778E1,4.5E0,3.4199998E0,1.0799999E0],"tree_param":{"num_deleted":"0","num_feature":"80","num_nodes":"19","size_leaf_vector":"1"}},{"base_weights":[7.4234806E-2,1.8732936E0,-4.284427E-1,3.203319E0,-2.448237E-2,-5.32587E-1,1.3112174E0,-1.8355982E-2,1.9060706E-1,-5.6427244E-2,-2.7308663E-2,-1.8419642E-2,1.3615309E-1,-1.427463E-2,1.0010985E-2],"categories":[],"categories_nodes":[],"categories_segments":[],"categories_sizes":[],"default_left":[0,0,0,0,0,0,0,0,0,0,0,0,0,0,0],"id":10,"left_children":[1,3,5,7,-1,9,11,-1,-1,13,-1,-1,-1,-1,-1],"loss_changes":[8.768565E1,6.80932E1,1.4450522E1,3.1129211E1,0E0,4.3709183E-1,1.1855009E1,0E0,0E0,2.4068442E-1,0E0,0E0,0E0,0E0,0E0],"parents":[2147483647,0,0,1,1,2,2,3,3,5,5,6,6,9,9],"right_children":[2,4,6,8,-1,10,12,-1,-1,14,-1,-1,-1,-1,-1],"split_conditions":[-1.1665744E1,1.7602839E1,3.5533494E-1,1.2859951E1,-2.448237E-2,-9.378722E0,4.7339005E0,-1.8355982E-2,1.9060706E-1,-6.321586E0,-2.7308663E-2,-1.8419642E-2,1.3615309E-1,-1.427463E-2,1.0010985E-2],"split_indices":[5,15,47,52,0,5,2,0,0,7,0,0,0,0,0],"split_type":[0,0,0,0,0,0,0,0,0,0,0,0,0,0,0],"sum_hessian":[9.507277E1,2.0167526E1,7.490524E1,1.2676609E1,7.4909163E0,7.1329E1,3.5762365E0,1.904524E0,1.0772085E1,2.1217308E0,6.9207275E1,1.9707685E0,1.6054682E0,1.0617192E0,1.0600117E0],"tree_param":{"num_deleted":"0","num_feature":"80","num_nodes":"15","size_leaf_vector":"1"}},{"base_weights":[2.0653035E-2,1.526962E-1,-1.9351171E-1,-2.9402253E-1,1.3831785E-1,-5.1506674E-1,4.946203E-1,-2.35366E-2,-2.725938E-2,1.5918775E0,-4.1314292E-1,3.1878497E-2,-2.0154063E-2,-2.0117685E-2,2.5433404E0,-2.4931248E-2,9.534334E-3,6.907265E-3,1.5732941E-1],"categories":[],"categories_nodes":[],"categories_segments":[],"categories_sizes":[],"default_left":[0,0,0,0,0,0,0,0,0,0,0,0,0,0,0,0,0,0,0],"id":11,"left_children":[1,-1,3,5,-1,7,9,11,-1,13,15,-1,-1,-1,17,-1,-1,-1,-1],"loss_changes":[5.8679836E1,0E0,2.5941038E1,1.4652784E1,0E0,9.4953346E-1,1.9175905E1,1.4610012E0,0E0,1.7385578E1,6.61229E-1,0E0,0E0,0E0,8.234005E0,0E0,0E0,0E0,0E0],"parents":[2147483647,0,0,2,2,3,3,5,5,6,6,7,7,9,9,10,10,14,14],"right_children":[2,-1,4,6,-1,8,10,12,-1,14,16,-1,-1,-1,18,-1,-1,-1,-1],"split_conditions":[-5.3327835E1,1.526962E-1,1.945981E2,5.443123E-1,1.3831785E-1,2.2697823E-1,2.2987714E-1,2.5057548E-1,-2.725938E-2,1.70833E1,1.37306795E1,3.1878497E-2,-2.0154063E-2,-2.0117685E-2,3.1025227E-2,-2.4931248E-2,9.534334E-3,6.907265E-3,1.5732941E-1],"split_indices":[4,0,13,34,0,41,7,47,0,15,19,0,0,0,65,0,0,0,0],"split_type":[0,0,0,0,0,0,0,0,0,0,0,0,0,0,0,0,0,0,0],"sum_hessian":[8.84198E1,4.9567246E0,8.346308E1,8.159302E1,1.8700612E0,6.400134E1,1.7591677E1,3.7983868E0,6.0202953E1,7.6233454E0,9.968331E0,1.1373956E0,2.6609912E0,2.6487615E0,4.974584E0,8.884773E0,1.0835575E0,1.2439322E0,3.7306516E0],"tree_param":{"num_deleted":"0","num_feature":"80","num_nodes":"19","size_leaf_vector":"1"}},{"base_weights":[1.818448E-2,-2.7274802E-2,1.2542375E0,-3.6802605E-1,2.4960706E0,1.7904399E-2,-2.5407389E-2,-5.679321E-2,3.3287714E0,-2.0883206E-2,3.345136E-2,7.9640215E-3,1.8174556E-1],"categories":[],"categories_nodes":[],"categories_segments":[],"categories_sizes":[],"default_left":[0,0,0,0,0,0,0,0,0,0,0,0,0],"id":12,"left_children":[1,-1,3,5,7,-1,-1,9,11,-1,-1,-1,-1],"loss_changes":[6.565207E1,0E0,6.0364544E1,1.5723698E0,3.59916E1,0E0,0E0,1.6219785E0,1.1759918E1,0E0,0E0,0E0,0E0],"parents":[2147483647,0,0,2,2,3,3,4,4,7,7,8,8],"right_children":[2,-1,4,6,8,-1,-1,10,12,-1,-1,-1,-1],"split_conditions":[3.641971E1,-2.7274802E-2,8.115868E-2,-1.7002126E-2,-3.2923884E0,1.7904399E-2,-2.5407389E-2,3.5449858E0,5.6231093E-2,-2.0883206E-2,3.345136E-2,7.9640215E-3,1.8174556E-1],"split_indices":[15,0,64,72,7,0,0,58,75,0,0,0,0],"split_type":[0,0,0,0,0,0,0,0,0,0,0,0,0],"sum_hessian":[9.224565E1,6.373781E1,2.8507843E1,1.2665701E1,1.5842143E1,1.7971711E0,1.0868529E1,4.125655E0,1.1716488E1,3.0391715E0,1.086484E0,1.1659184E0,1.055057E1],"tree_param":{"num_deleted":"0","num_feature":"80","num_nodes":"13","size_leaf_vector":"1"}},{"base_weights":[-4.944464E-2,-4.3270287E-1,2.0389721E0,1.1258536E-1,-5.08204E-1,2.253204E-2,2.662518E0,-5.337746E-1,2.9396638E-2,3.2401923E-2,-1.9315498E-2,3.203329E0,-1.6993215E-2,9.479431E-3,-2.733974E-2,1.7854922E-1,9.557765E-3],"categories":[],"categories_nodes":[],"categories_segments":[],"categories_sizes":[],"default_left":[0,0,0,0,0,0,0,0,0,0,0,0,0,0,0,0,0],"id":13,"left_children":[1,3,5,-1,7,9,11,13,-1,-1,-1,15,-1,-1,-1,-1,-1],"loss_changes":[7.451742E1,1.7066011E1,1.8096317E1,0E0,2.4783382E0,1.3804834E0,1.8983757E1,8.1933975E-1,0E0,0E0,0E0,9.765823E0,0E0,0E0,0E0,0E0,0E0],"parents":[2147483647,0,0,1,1,2,2,4,4,5,5,6,6,7,7,11,11],"right_children":[2,4,6,-1,8,10,12,14,-1,-1,-1,16,-1,-1,-1,-1,-1],"split_conditions":[7.770324E-2,2.056653E-2,-8.5678354E-2,1.1258536E-1,3.8803867E-1,-6.935873E-2,8.834342E0,-3.6107212E1,2.9396638E-2,3.2401923E-2,-1.9315498E-2,8.864265E-2,-1.6993215E-2,9.479431E-3,-2.733974E-2,1.7854922E-1,9.557765E-3],"split_indices":[78,64,71,0,40,73,4,5,0,0,0,70,0,0,0,0,0],"split_type":[0,0,0,0,0,0,0,0,0,0,0,0,0,0,0,0,0],"sum_hessian":[9.09976E1,7.755737E1,1.3440224E1,1.3331808E0,7.62242E1,3.4192123E0,1.0021011E1,7.4987915E1,1.2362773E0,1.1202426E0,2.2989697E0,8.434752E0,1.5862584E0,1.0860963E0,7.390182E1,7.3518896E0,1.0828631E0],"tree_param":{"num_deleted":"0","num_feature":"80","num_nodes":"17","size_leaf_vector":"1"}},{"base_weights":[4.5825695E-3,9.3092626E-1,-4.7975406E-1,2.0424566E0,-4.5149812E-1,-2.2730174E-2,-2.7188865E-2,3.3871005E0,2.044099E-1,-2.5743952E-2,9.318836E-3,-3.4533215E-1,5.5497017E-2,1.8746267E-1,9.309745E-3,9.863558E-2,-3.4563106E-1,9.347695E-3,-2.334497E-2,-2.335756E-2,9.39266E-3],"categories":[],"categories_nodes":[],"categories_segments":[],"categories_sizes":[],"default_left":[0,0,0,0,0,0,0,0,0,0,0,0,0,0,0,0,0,0,0,0,0],"id":14,"left_children":[1,3,5,7,9,11,-1,13,15,-1,-1,17,-1,-1,-1,-1,19,-1,-1,-1,-1],"loss_changes":[4.1724632E1,4.998262E1,1.7746935E0,4.3495766E1,7.0437336E-1,3.5067968E0,0E0,1.1196739E1,9.063868E0,0E0,0E0,5.6716025E-1,0E0,0E0,0E0,0E0,5.690544E-1,0E0,0E0,0E0,0E0],"parents":[2147483647,0,0,1,1,2,2,3,3,4,4,5,5,7,7,8,8,11,11,16,16],"right_children":[2,4,6,8,10,12,-1,14,16,-1,-1,18,-1,-1,-1,-1,20,-1,-1,-1,-1],"split_conditions":[1.4519097E-2,3.830918E1,1.5557988E1,-2.0911205E1,2.9645188E0,3.698679E0,-2.7188865E-2,3.3572946E0,4.029535E0,-2.5743952E-2,9.318836E-3,-7.91997E-3,5.5497017E-2,1.8746267E-1,9.309745E-3,9.863558E-2,1.7923592E-2,9.347695E-3,-2.334497E-2,-2.335756E-2,9.39266E-3],"split_indices":[66,3,55,4,62,58,0,61,3,0,0,72,0,0,0,0,69,0,0,0,0],"split_type":[0,0,0,0,0,0,0,0,0,0,0,0,0,0,0,0,0,0,0,0,0],"sum_hessian":[9.100244E1,3.092779E1,6.007465E1,1.6878935E1,1.4048855E1,7.548123E0,5.2526527E1,9.2611E0,7.617835E0,1.2954484E1,1.0943707E0,6.4158945E0,1.1322286E0,8.1658945E0,1.0952054E0,1.1937195E0,6.4241157E0,1.0928688E0,5.3230257E0,5.333548E0,1.0905674E0],"tree_param":{"num_deleted":"0","num_feature":"80","num_nodes":"21","size_leaf_vector":"1"}},{"base_weights":[7.5316527E-3,2.6120722E0,-1.8452135E-1,-1.530418E-2,1.6789488E-1,-3.5332966E-1,1.9343455E0,-4.1039333E-1,1.2463386E0,1.5494682E-1,-1.8811814E-2,7.7438906E-2,-4.588392E-1,1.0859024E-1,-1.4141104E-2,5.6048658E-2,-5.181809E-1,8.3626054E-2,-3.618737E-1,-5.319072E-1,7.1457303E-3,-2.3765188E-2,9.233407E-3,-2.0155428E-1,-2.7290428E-2,-1.9441282E-2,9.929046E-3],"categories":[],"categories_nodes":[],"categories_segments":[],"categories_sizes":[],"default_left":[0,0,0,0,0,0,0,0,0,0,0,0,0,0,0,0,0,0,0,0,0,0,0,0,0,0,0],"id":15,"left_children":[1,3,5,-1,-1,7,9,11,13,-1,-1,-1,15,-1,-1,17,19,-1,21,23,-1,-1,-1,25,-1,-1,-1],"loss_changes":[4.714549E1,1.5114601E1,3.209349E1,0E0,0E0,8.013219E0,1.9018272E1,8.313493E0,4.970627E0,0E0,0E0,0E0,2.441042E0,0E0,0E0,6.726013E0,7.192173E-1,0E0,5.850402E-1,2.0985031E-1,0E0,0E0,0E0,4.0677732E-1,0E0,0E0,0E0],"parents":[2147483647,0,0,1,1,2,2,5,5,6,6,7,7,8,8,12,12,15,15,16,16,18,18,19,19,23,23],"right_children":[2,4,6,-1,-1,8,10,12,14,-1,-1,-1,16,-1,-1,18,20,-1,22,24,-1,-1,-1,26,-1,-1,-1],"split_conditions":[-1.5271718E1,-5.5191654E1,3.679234E1,-1.530418E-2,1.6789488E-1,2.578281E1,-5.0259366E0,1.5651815E0,1.628521E2,1.5494682E-1,-1.8811814E-2,7.7438906E-2,2.002291E0,1.0859024E-1,-1.4141104E-2,3.724024E-1,1.5871711E1,8.3626054E-2,3.5599773E0,8.0200243E-1,7.1457303E-3,-2.3765188E-2,9.233407E-3,4.2092866E-1,-2.7290428E-2,-1.9441282E-2,9.929046E-3],"split_indices":[9,2,5,0,0,7,2,62,1,0,0,0,62,0,0,32,8,0,6,63,0,0,0,34,0,0,0],"split_type":[0,0,0,0,0,0,0,0,0,0,0,0,0,0,0,0,0,0,0,0,0,0,0,0,0,0,0],"sum_hessian":[9.228786E1,5.472422E0,8.681544E1,1.2339622E0,4.23846E0,8.118105E1,5.6343794E0,7.910274E1,2.0783176E0,3.5193472E0,2.115032E0,1.1615112E0,7.794123E1,1.0329218E0,1.0453957E0,8.060294E0,6.9880936E1,1.039119E0,7.021175E0,6.8650955E1,1.2299781E0,5.9223795E0,1.0987954E0,3.3980649E0,6.525289E1,2.3339796E0,1.0640851E0],"tree_param":{"num_deleted":"0","num_feature":"80","num_nodes":"27","size_leaf_vector":"1"}},{"base_weights":[-4.774654E-2,2.0150926E0,-4.546833E-1,-2.7909318E-1,3.0721846E0,-5.1953E-1,1.1442131E0,-2.1628318E-2,9.424626E-3,1.8310513E-1,-1.6418165E-2,9.772289E-3,-5.328201E-1,-1.5360872E-2,1.0940492E-1,8.763216E-3,-2.7322153E-2],"categories":[],"categories_nodes":[],"categories_segments":[],"categories_sizes":[],"default_left":[0,0,0,0,0,0,0,0,0,0,0,0,0,0,0,0,0],"id":16,"left_children":[1,3,5,7,9,11,13,-1,-1,-1,-1,-1,15,-1,-1,-1,-1],"loss_changes":[7.618256E1,3.713161E1,8.443745E0,4.858943E-1,2.1910255E1,8.019867E-1,5.6160164E0,0E0,0E0,0E0,0E0,0E0,7.938652E-1,0E0,0E0,0E0,0E0],"parents":[2147483647,0,0,1,1,2,2,3,3,4,4,5,5,6,6,12,12],"right_children":[2,4,6,8,10,12,14,-1,-1,-1,-1,-1,16,-1,-1,-1,-1],"split_conditions":[3.1282315E0,2.663552E-1,5.5463057E-2,2.2361038E0,4.115431E1,-3.6107212E1,1.9423965E2,-2.1628318E-2,9.424626E-3,1.8310513E-1,-1.6418165E-2,9.772289E-3,1.0902538E1,-1.5360872E-2,1.0940492E-1,8.763216E-3,-2.7322153E-2],"split_indices":[59,48,72,9,13,5,1,0,0,0,0,0,14,0,0,0,0],"split_type":[0,0,0,0,0,0,0,0,0,0,0,0,0,0,0,0,0],"sum_hessian":[8.866201E1,1.3957411E1,7.4704605E1,4.63473E0,9.322681E0,7.244164E1,2.262957E0,3.5458033E0,1.0889263E0,7.8789473E0,1.4437343E0,1.0718657E0,7.136978E1,1.2419013E0,1.0210559E0,1.1232044E0,7.0246574E1],"tree_param":{"num_deleted":"0","num_feature":"80","num_nodes":"17","size_leaf_vector":"1"}},{"base_weights":[4.288573E-2,-4.9899644E-1,1.2900823E0,-5.292945E-1,1.692279E-2,-1.4192328E-2,2.1553473E0,-2.7255742E-2,9.347559E-3,1.4521024E0,-2.4907235E-2,3.1127157E0,6.6367745E-1,6.7833983E-3,1.10206306E-1,1.7646979E-1,2.3175618E-2,-1.5824614E-2,1.1827727E-1,5.5989545E-2,-2.267594E-2],"categories":[],"categories_nodes":[],"categories_segments":[],"categories_sizes":[],"default_left":[0,0,0,0,0,0,0,0,0,0,0,0,0,0,0,0,0,0,0,0,0],"id":17,"left_children":[1,3,5,7,-1,9,11,-1,-1,13,-1,15,17,-1,-1,-1,-1,19,-1,-1,-1],"loss_changes":[6.2228966E1,1.8092594E0,3.1493359E1,8.088951E-1,0E0,9.318462E0,2.187844E1,0E0,0E0,2.9294157E0,0E0,9.338081E0,9.0869055E0,0E0,0E0,0E0,0E0,3.7813582E0,0E0,0E0,0E0],"parents":[2147483647,0,0,1,1,2,2,3,3,5,5,6,6,9,9,11,11,12,12,17,17],"right_children":[2,4,6,8,-1,10,12,-1,-1,14,-1,16,18,-1,-1,-1,-1,20,-1,-1,-1],"split_conditions":[1.8989073E1,3.6064184E-1,2.796697E-1,1.5488489E-1,1.692279E-2,8.477345E0,-5.7813576E-3,-2.7255742E-2,9.347559E-3,4.2415013E0,-2.4907235E-2,4.070519E-1,4.416295E-1,6.7833983E-3,1.10206306E-1,1.7646979E-1,2.3175618E-2,-9.225656E0,1.1827727E-1,5.5989545E-2,-2.267594E-2],"split_indices":[53,39,34,75,0,22,72,0,0,63,0,34,30,0,0,0,0,11,0,0,0],"split_type":[0,0,0,0,0,0,0,0,0,0,0,0,0,0,0,0,0,0,0,0,0],"sum_hessian":[9.0124825E1,6.324572E1,2.6879105E1,6.139258E1,1.8531443E0,1.111232E1,1.5766784E1,6.0299618E1,1.0929605E0,2.2610893E0,8.851231E0,8.941382E0,6.8254013E0,1.2512143E0,1.0098752E0,7.4390793E0,1.5023034E0,5.58585E0,1.2395515E0,1.1204388E0,4.4654107E0],"tree_param":{"num_deleted":"0","num_feature":"80","num_nodes":"21","size_leaf_vector":"1"}},{"base_weights":[-5.0936587E-2,-3.8300994E-1,2.6672983E0,1.6696718E0,-5.223295E-1,1.7106842E-1,-1.8407945E-2,-1.8795334E-2,1.5017991E-1,-2.7345736E-2,5.1398077E-3,3.3771425E-2,-1.977689E-2],"categories":[],"categories_nodes":[],"categories_segments":[],"categories_sizes":[],"default_left":[0,0,0,0,0,0,0,0,0,0,0,0,0],"id":18,"left_children":[1,3,5,7,9,-1,-1,-1,-1,-1,11,-1,-1],"loss_changes":[8.605745E1,2.51303E1,2.5022095E1,1.649034E1,1.0427837E0,0E0,0E0,0E0,0E0,0E0,1.4924046E0,0E0,0E0],"parents":[2147483647,0,0,1,1,2,2,3,3,4,4,10,10],"right_children":[2,4,6,8,10,-1,-1,-1,-1,-1,12,-1,-1],"split_conditions":[6.5020764E-1,8.024769E0,2.6521355E-1,5.3901777E0,6.2032515E-1,1.7106842E-1,-1.8407945E-2,-1.8795334E-2,1.5017991E-1,-2.7345736E-2,-4.45553E2,3.3771425E-2,-1.977689E-2],"split_indices":[31,51,38,6,34,0,0,0,0,0,0,0,0],"split_type":[0,0,0,0,0,0,0,0,0,0,0,0,0],"sum_hessian":[9.320654E1,8.3825134E1,9.381407E0,4.6296177E0,7.919552E1,7.4127846E0,1.9686224E0,2.1108387E0,2.518779E0,7.563339E1,3.5621207E0,1.0761412E0,2.4859793E0],"tree_param":{"num_deleted":"0","num_feature":"80","num_nodes":"13","size_leaf_vector":"1"}},{"base_weights":[-1.4516138E-2,7.8940916E-1,-4.1607153E-1,-1.85658E-1,2.4713666E0,5.6164414E-2,-4.7863826E-1,1.3406284E0,-2.6136635E-2,1.7942539E-1,3.4816042E-1,-5.261927E-1,4.826294E-2,-1.5254405E-2,1.0924476E-1,-2.051555E-2,7.5973496E-2,-2.7175283E-2,-2.0721534E-1,-2.1437233E-2,4.3472085E-2,9.584944E-3,-1.959286E-2],"categories":[],"categories_nodes":[],"categories_segments":[],"categories_sizes":[],"default_left":[0,0,0,0,0,0,0,0,0,0,0,0,0,0,0,0,0,0,0,0,0,0,0],"id":19,"left_children":[1,3,5,7,9,-1,11,13,-1,-1,15,17,19,-1,-1,-1,-1,-1,21,-1,-1,-1,-1],"loss_changes":[2.9878141E1,5.1031387E1,6.48009E0,1.1221935E1,2.575772E1,0E0,1.5285578E0,6.1963806E0,0E0,0E0,5.094742E0,1.9171047E-1,2.6768506E0,0E0,0E0,0E0,0E0,0E0,4.0313143E-1,0E0,0E0,0E0,0E0],"parents":[2147483647,0,0,1,1,2,2,3,3,4,4,6,6,7,7,10,10,11,11,12,12,18,18],"right_children":[2,4,6,8,10,-1,12,14,-1,-1,16,18,20,-1,-1,-1,-1,-1,22,-1,-1,-1,-1],"split_conditions":[-3.1863627E0,1.3300006E2,1.3149888E1,1.0290283E1,-4.44851E0,5.6164414E-2,6.137606E1,2.6214316E0,-2.6136635E-2,1.7942539E-1,1.067228E1,2.526986E1,-1.0928137E1,-1.5254405E-2,1.0924476E-1,-2.051555E-2,7.5973496E-2,-2.7175283E-2,-2.0844645E1,-2.1437233E-2,4.3472085E-2,9.584944E-3,-1.959286E-2],"split_indices":[12,1,54,17,10,0,56,2,0,0,19,7,4,0,0,0,0,0,5,0,0,0,0],"split_type":[0,0,0,0,0,0,0,0,0,0,0,0,0,0,0,0,0,0,0,0,0,0,0],"sum_hessian":[9.053597E1,2.9836525E1,6.0699448E1,1.9450352E1,1.0386172E1,1.7085953E0,5.8990852E1,2.9799206E0,1.6470432E1,6.353234E0,4.032939E0,5.4108715E1,4.8821344E0,1.2269266E0,1.7529942E0,2.8421972E0,1.1907415E0,5.0655426E1,3.4532921E0,3.3905296E0,1.4916049E0,1.0805565E0,2.3727357E0],"tree_param":{"num_deleted":"0","num_feature":"80","num_nodes":"23","size_leaf_vector":"1"}},{"base_weights":[4.1647926E-2,1.980997E0,-3.925234E-1,-2.310346E-2,1.497445E-1,-2.7227288E-2,5.454419E-1,1.801929E0,-2.3204036E-1,1.348629E-1,-1.52659435E-2,3.540274E-2,-2.3644233E-2],"categories":[],"categories_nodes":[],"categories_segments":[],"categories_sizes":[],"default_left":[0,0,0,0,0,0,0,0,0,0,0,0,0],"id":20,"left_children":[1,3,5,-1,-1,-1,7,9,11,-1,-1,-1,-1],"loss_changes":[8.024994E1,4.4559074E1,1.1412571E1,0E0,0E0,0E0,1.1527309E1,9.239978E0,2.1259952E0,0E0,0E0,0E0,0E0],"parents":[2147483647,0,0,1,1,2,2,6,6,7,7,8,8],"right_children":[2,4,6,-1,-1,-1,8,10,12,-1,-1,-1,-1],"split_conditions":[-2.2027407E1,-6.0437855E1,3.3416516E-1,-2.310346E-2,1.497445E-1,-2.7227288E-2,-7.82836E0,3.8265064E1,3.3402534E1,1.348629E-1,-1.52659435E-2,3.540274E-2,-2.3644233E-2],"split_indices":[5,2,44,0,0,0,5,15,13,0,0,0,0],"split_type":[0,0,0,0,0,0,0,0,0,0,0,0,0],"sum_hessian":[9.338412E1,1.6430397E1,7.695372E1,4.9785047E0,1.1451892E1,6.65818E1,1.0371921E1,3.4609852E0,6.910936E0,2.2324636E0,1.2285217E0,1.0138105E0,5.8971252E0],"tree_param":{"num_deleted":"0","num_feature":"80","num_nodes":"13","size_leaf_vector":"1"}},{"base_weights":[-7.0747286E-2,6.813611E-1,-4.7918782E-1,-3.65662E-1,1.8971914E0,6.2444735E-2,-2.7139632E-2,3.7366748E-1,-2.5947783E-2,2.7999775E0,-2.237805E-2,6.345728E-2,-2.2948308E-2,5.8675874E-2,-1.7697308E-2,8.749848E-3,3.0686285E0,1.6410683E-1,5.9118804E-2],"categories":[],"categories_nodes":[],"categories_segments":[],"categories_sizes":[],"default_left":[0,0,0,0,0,0,0,0,0,0,0,0,0,0,0,0,0,0,0],"id":21,"left_children":[1,3,5,7,9,11,-1,13,-1,15,-1,-1,-1,-1,-1,-1,17,-1,-1],"loss_changes":[2.9166998E1,4.3281166E1,2.1501865E0,2.3261254E0,3.4362026E1,5.208625E0,0E0,2.6340406E0,0E0,7.5239716E0,0E0,0E0,0E0,0E0,0E0,0E0,2.7101898E-1,0E0,0E0],"parents":[2147483647,0,0,1,1,2,2,3,3,4,4,5,5,7,7,9,9,16,16],"right_children":[2,4,6,8,10,12,-1,14,-1,16,-1,-1,-1,-1,-1,-1,18,-1,-1],"split_conditions":[1.5676879E1,3.7409942E0,3.602329E0,-4.3896627E0,-1.9584103E1,-4.54433E0,-2.7139632E-2,1.0455646E2,-2.5947783E-2,4.186429E1,-2.237805E-2,6.345728E-2,-2.2948308E-2,5.8675874E-2,-1.7697308E-2,8.749848E-3,6.81259E-2,1.6410683E-1,5.9118804E-2],"split_indices":[54,63,60,12,2,12,0,1,0,13,0,0,0,0,0,0,77,0,0],"split_type":[0,0,0,0,0,0,0,0,0,0,0,0,0,0,0,0,0,0,0],"sum_hessian":[9.288441E1,3.245433E1,6.0430077E1,1.7813406E1,1.4640924E1,6.3525524E0,5.4077526E1,2.8122826E0,1.5001123E1,1.0430705E1,4.2102194E0,1.4840217E0,4.8685308E0,1.0477183E0,1.7645644E0,1.1217277E0,9.308977E0,7.6976395E0,1.6113377E0],"tree_param":{"num_deleted":"0","num_feature":"80","num_nodes":"19","size_leaf_vector":"1"}},{"base_weights":[3.138559E-2,-2.7194295E-2,1.234141E0,-2.722242E-1,2.185673E0,-2.5136773E-2,3.8447566E-2,-1.8546985E-1,2.6898592E0,-1.8926498E-2,9.918294E-3,3.002122E0,-1.6144706E-2,1.5825161E-1,3.1120364E-2],"categories":[],"categories_nodes":[],"categories_segments":[],"categories_sizes":[],"default_left":[0,0,0,0,0,0,0,0,0,0,0,0,0,0,0],"id":22,"left_children":[1,-1,3,5,7,-1,-1,9,11,-1,-1,13,-1,-1,-1],"loss_changes":[6.475971E1,0E0,4.398887E1,3.4128757E0,2.2812752E1,0E0,0E0,3.8694194E-1,1.5510422E1,0E0,0E0,3.4971619E0,0E0,0E0,0E0],"parents":[2147483647,0,0,2,2,3,3,4,4,7,7,8,8,11,11],"right_children":[2,-1,4,6,8,-1,-1,10,12,-1,-1,14,-1,-1,-1],"split_conditions":[3.641971E1,-2.7194295E-2,8.115868E-2,5.7465755E1,-3.2923884E0,-2.5136773E-2,3.8447566E-2,5.099312E-2,1.3681989E2,-1.8926498E-2,9.918294E-3,6.471822E-1,-1.6144706E-2,1.5825161E-1,3.1120364E-2],"split_indices":[15,0,64,56,7,0,0,70,13,0,0,8,0,0,0],"split_type":[0,0,0,0,0,0,0,0,0,0,0,0,0,0,0],"sum_hessian":[9.162534E1,6.2350994E1,2.9274347E1,1.1609429E1,1.7664917E1,9.928462E0,1.6809673E0,3.2083716E0,1.4456546E1,2.1438766E0,1.064495E0,1.3102083E1,1.3544624E0,1.195375E1,1.1483332E0],"tree_param":{"num_deleted":"0","num_feature":"80","num_nodes":"15","size_leaf_vector":"1"}},{"base_weights":[-1.8240295E-2,2.201088E0,-3.989025E-1,-2.5495327E-1,1.6444463E-1,-4.9462453E-1,1.3867637E0,-2.1027578E-2,1.0293481E-2,-5.32772E-1,5.9577953E-2,-1.685641E-2,1.22914724E-1,9.193737E-3,-2.7281463E-2],"categories":[],"categories_nodes":[],"categories_segments":[],"categories_sizes":[],"default_left":[0,0,0,0,0,0,0,0,0,0,0,0,0,0,0],"id":23,"left_children":[1,3,5,7,-1,9,11,-1,-1,13,-1,-1,-1,-1,-1],"loss_changes":[8.027249E1,3.8009087E1,1.4542317E1,4.8329592E-1,0E0,5.6313915E0,8.933188E0,0E0,0E0,8.0659676E-1,0E0,0E0,0E0,0E0,0E0],"parents":[2147483647,0,0,1,1,2,2,3,3,5,5,6,6,9,9],"right_children":[2,4,6,8,-1,10,12,-1,-1,14,-1,-1,-1,-1,-1],"split_conditions":[-1.1091147E1,6.930172E-2,1.8710344E1,5.5830216E-1,1.6444463E-1,3.8046288E-1,1.10320835E1,-2.1027578E-2,1.0293481E-2,1.7882036E-1,5.9577953E-2,-1.685641E-2,1.22914724E-1,9.193737E-3,-2.7281463E-2],"split_indices":[7,79,50,34,0,45,20,0,0,28,0,0,0,0,0],"split_type":[0,0,0,0,0,0,0,0,0,0,0,0,0,0,0],"sum_hessian":[9.297859E1,1.2912744E1,8.006585E1,4.198656E0,8.7140875E0,7.6678444E1,3.387405E0,3.1530035E0,1.0456527E0,7.5650986E1,1.0274575E0,1.5611632E0,1.8262417E0,1.0988922E0,7.455209E1],"tree_param":{"num_deleted":"0","num_feature":"80","num_nodes":"15","size_leaf_vector":"1"}},{"base_weights":[-1.6491992E-2,1.3442703E0,-3.4949192E-1,2.2481406E0,-1.1436812E-1,6.136842E-2,-5.2373165E-1,2.8581932E0,-9.272314E-2,-2.3660028E-2,5.4272182E-2,1.1473484E-1,-2.1050099E-1,-1.8447386E-1,-2.7082345E-2,3.0362947E-2,1.5583315E-1,-1.5646469E-2,9.690109E-3,-2.596855E-2,5.4816633E-1,9.797721E-3,-1.8864442E-2,1.5887347E0,-2.1255923E-2,8.795443E-3,1.0890553E-1],"categories":[],"categories_nodes":[],"categories_segments":[],"categories_sizes":[],"default_left":[0,0,0,0,0,0,0,0,0,0,0,0,0,0,0,0,0,0,0,0,0,0,0,0,0,0,0],"id":24,"left_children":[1,3,5,7,9,11,13,15,17,-1,-1,-1,19,21,-1,-1,-1,-1,-1,-1,23,-1,-1,25,-1,-1,-1],"loss_changes":[4.28923E1,2.47961E1,5.473403E0,1.6744606E1,3.9890976E0,1.4769735E1,2.2511387E-1,3.4515839E0,2.722825E-1,0E0,0E0,0E0,5.414717E0,3.8192672E-1,0E0,0E0,0E0,0E0,0E0,0E0,7.5830994E0,0E0,0E0,2.5374603E0,0E0,0E0,0E0],"parents":[2147483647,0,0,1,1,2,2,3,3,4,4,5,5,6,6,7,7,8,8,12,12,13,13,20,20,23,23],"right_children":[2,4,6,8,10,12,14,16,18,-1,-1,-1,20,22,-1,-1,-1,-1,-1,-1,24,-1,-1,26,-1,-1,-1],"split_conditions":[1.4197183E1,1.5457357E-2,1.5130328E-2,1.3730831E0,9.950188E0,2.679957E-1,5.993363E0,8.773678E0,6.8613267E0,-2.3660028E-2,5.4272182E-2,1.1473484E-1,5.49791E-3,2.2762275E0,-2.7082345E-2,3.0362947E-2,1.5583315E-1,-1.5646469E-2,9.690109E-3,-2.596855E-2,-2.3213903E1,9.797721E-3,-1.8864442E-2,2.1362212E0,-2.1255923E-2,8.795443E-3,1.0890553E-1],"split_indices":[53,66,66,10,51,32,21,16,18,0,0,0,67,63,0,0,0,0,0,0,4,0,0,62,0,0,0],"split_type":[0,0,0,0,0,0,0,0,0,0,0,0,0,0,0,0,0,0,0,0,0,0,0,0,0,0,0],"sum_hessian":[9.262023E1,1.7612423E1,7.5007805E1,1.0539922E1,7.072501E0,2.2529842E1,5.2477962E1,8.1856575E0,2.3542638E0,5.910445E0,1.1620559E0,1.6375346E0,2.089231E1,3.1988518E0,4.927911E1,1.1881207E0,6.997537E0,1.2790838E0,1.0751799E0,1.5071706E1,5.8206024E0,1.0704829E0,2.128369E0,2.5074587E0,3.3131437E0,1.1203269E0,1.3871319E0],"tree_param":{"num_deleted":"0","num_feature":"80","num_nodes":"27","size_leaf_vector":"1"}},{"base_weights":[2.9158475E-2,1.4784162E0,-2.812401E-1,-2.4466603E-1,2.7979887E0,-4.360625E-1,1.3780661E0,3.2526303E-2,-2.3804506E-2,2.996778E-2,1.5201013E-1,8.931046E-1,-5.1597315E-1,-2.0715397E-2,1.4052993E-1,1.071121E-1,-1.8704344E-2,2.1042386E-3,-5.297844E-1,-2.7213797E-2,-8.9033926E-4],"categories":[],"categories_nodes":[],"categories_segments":[],"categories_sizes":[],"default_left":[0,0,0,0,0,0,0,0,0,0,0,0,0,0,0,0,0,0,0,0,0],"id":25,"left_children":[1,3,5,7,9,11,13,-1,-1,-1,-1,15,17,-1,-1,-1,-1,-1,19,-1,-1],"loss_changes":[4.308786E1,3.9094013E1,2.0887182E1,2.0179827E0,3.3151855E0,8.213074E0,1.9085396E1,0E0,0E0,0E0,0E0,7.932887E0,5.578232E-1,0E0,0E0,0E0,0E0,0E0,4.9390602E-1,0E0,0E0],"parents":[2147483647,0,0,1,1,2,2,3,3,4,4,5,5,6,6,11,11,12,12,18,18],"right_children":[2,4,6,8,10,12,14,-1,-1,-1,-1,16,18,-1,-1,-1,-1,-1,20,-1,-1],"split_conditions":[2.0214975E0,1.8014706E1,2.2622206E1,1.3288271E0,2.6704136E-1,-4.119107E1,1.0901046E1,3.2526303E-2,-2.3804506E-2,2.996778E-2,1.5201013E-1,-4.4684885E2,1.4576995E1,-2.0715397E-2,1.4052993E-1,1.071121E-1,-1.8704344E-2,2.1042386E-3,6.798331E1,-2.7213797E-2,-8.9033926E-4],"split_indices":[62,14,7,7,40,4,51,0,0,0,0,0,55,0,0,0,0,0,56,0,0],"split_type":[0,0,0,0,0,0,0,0,0,0,0,0,0,0,0,0,0,0,0,0,0],"sum_hessian":[9.385896E1,1.5892689E1,7.796627E1,7.2457976E0,8.646892E0,7.198672E1,5.9795556E0,1.1163963E0,6.129401E0,1.2028475E0,7.4440436E0,3.5053506E0,6.848137E1,2.97191E0,3.0076454E0,1.4175013E0,2.0878491E0,1.6044564E0,6.687691E1,6.497472E1,1.902193E0],"tree_param":{"num_deleted":"0","num_feature":"80","num_nodes":"21","size_leaf_vector":"1"}},{"base_weights":[-3.2508682E-2,1.738189E0,-4.7719717E-1,2.9098594E0,-2.3830432E-2,4.417807E-2,-5.173105E-1,3.9668623E-2,1.5797415E-1,3.4085892E-2,-2.7249852E-2],"categories":[],"categories_nodes":[],"categories_segments":[],"categories_sizes":[],"default_left":[0,0,0,0,0,0,0,0,0,0,0],"id":26,"left_children":[1,3,5,7,-1,-1,9,-1,-1,-1,-1],"loss_changes":[7.2291504E1,4.9219696E1,4.4594E0,3.93676E0,0E0,0E0,2.7568817E0,0E0,0E0,0E0,0E0],"parents":[2147483647,0,0,1,1,2,2,3,3,6,6],"right_children":[2,4,6,8,-1,-1,10,-1,-1,-1,-1],"split_conditions":[1.1367786E1,5.6469446E-1,-1.4093871E-1,1.4354941E1,-2.3830432E-2,4.417807E-2,1.9106962E-2,3.9668623E-2,1.5797415E-1,3.4085892E-2,-2.7249852E-2],"split_indices":[52,29,68,54,0,0,78,0,0,0,0],"split_type":[0,0,0,0,0,0,0,0,0,0,0],"sum_hessian":[8.975595E1,1.7432598E1,7.232335E1,1.1195917E1,6.2366815E0,1.4688594E0,7.085449E1,1.6219695E0,9.573948E0,1.066004E0,6.978849E1],"tree_param":{"num_deleted":"0","num_feature":"80","num_nodes":"11","size_leaf_vector":"1"}},{"base_weights":[3.4751073E-2,-5.135029E-1,1.1488551E0,-2.7200779E-2,2.3288367E-2,4.5271093E-1,2.5069084E0,1.6725811E0,-1.4321382E-1,-1.7837958E-2,1.5665187E-1,-1.8189846E-2,2.4527957E0,-4.496082E-1,1.0517079E-1,1.4055184E-1,3.0770516E-2,9.686061E-3,-2.5705626E-2],"categories":[],"categories_nodes":[],"categories_segments":[],"categories_sizes":[],"default_left":[0,0,0,0,0,0,0,0,0,0,0,0,0,0,0,0,0,0,0],"id":27,"left_children":[1,3,5,-1,-1,7,9,11,13,-1,-1,-1,15,17,-1,-1,-1,-1,-1],"loss_changes":[5.9019424E1,2.1896477E0,2.8983318E1,0E0,0E0,1.643732E1,2.0080414E1,1.2636068E1,1.1883867E1,0E0,0E0,0E0,1.8726578E0,7.140548E-1,0E0,0E0,0E0,0E0,0E0],"parents":[2147483647,0,0,1,1,2,2,5,5,6,6,7,7,8,8,12,12,13,13],"right_children":[2,4,6,-1,-1,8,10,12,14,-1,-1,-1,16,18,-1,-1,-1,-1,-1],"split_conditions":[1.8989073E1,3.686244E-1,1.9587288E-2,-2.7200779E-2,2.3288367E-2,8.5151085E1,2.7424526E-1,2.3065092E-1,1.3253485E2,-1.7837958E-2,1.5665187E-1,-1.8189846E-2,8.5423975E0,-1.3159116E1,1.0517079E-1,1.4055184E-1,3.0770516E-2,9.686061E-3,-2.5705626E-2],"split_indices":[53,38,68,0,0,1,35,34,13,0,0,0,24,12,0,0,0,0,0],"split_type":[0,0,0,0,0,0,0,0,0,0,0,0,0,0,0,0,0,0,0],"sum_hessian":[9.46587E1,6.3801083E1,3.0857616E1,6.230424E1,1.4968424E0,2.1281816E1,9.575801E0,6.3915286E0,1.4890287E1,1.7952497E0,7.7805514E0,1.9183397E0,4.473189E0,1.3807149E1,1.0831386E0,3.2998877E0,1.173301E0,1.075682E0,1.2731466E1],"tree_param":{"num_deleted":"0","num_feature":"80","num_nodes":"19","size_leaf_vector":"1"}},{"base_weights":[3.1644806E-2,-4.5174932E-1,2.10061E0,-5.0434655E-1,7.357859E-2,2.950021E0,-2.2393107E-2,3.2668803E-2,-5.3120345E-1,1.58781E-1,4.0361386E-2,-2.7245304E-2,1.0003923E-2],"categories":[],"categories_nodes":[],"categories_segments":[],"categories_sizes":[],"default_left":[0,0,0,0,0,0,0,0,0,0,0,0,0],"id":28,"left_children":[1,3,5,7,-1,9,-1,-1,11,-1,-1,-1,-1],"loss_changes":[9.19451E1,8.286396E0,3.90058E1,2.6272888E0,0E0,3.812088E0,0E0,0E0,8.327465E-1,0E0,0E0,0E0,0E0],"parents":[2147483647,0,0,1,1,2,2,3,3,5,5,8,8],"right_children":[2,4,6,8,-1,10,-1,-1,12,-1,-1,-1,-1],"split_conditions":[6.014338E-1,6.5020764E-1,1.2514305E1,9.134126E-3,7.357859E-2,8.3815455E-2,-2.2393107E-2,3.2668803E-2,6.14042E-1,1.58781E-1,4.0361386E-2,-2.7245304E-2,1.0003923E-2],"split_indices":[29,31,50,65,0,64,0,0,30,0,0,0,0],"split_type":[0,0,0,0,0,0,0,0,0,0,0,0,0],"sum_hessian":[8.998472E1,7.3576035E1,1.640869E1,7.233563E1,1.2403955E0,1.2188629E1,4.22006E0,1.111106E0,7.122453E1,1.0591525E1,1.5971043E0,7.0164665E1,1.0598679E0],"tree_param":{"num_deleted":"0","num_feature":"80","num_nodes":"13","size_leaf_vector":"1"}},{"base_weights":[-3.30139E-2,7.655942E-1,-3.6418575E-1,-4.3594614E-1,1.7514695E0,-4.6346933E-1,8.5024476E-1,-2.5380824E-2,9.479627E-3,-1.9926025E-2,2.2195263E0,-5.1091564E-1,5.3038258E-2,-1.8382287E-2,1.6615392E0,-1.6265195E-2,2.56714E0,-2.7146954E-2,-8.7469086E-2,1.15771495E-1,8.794077E-3,7.092736E-3,2.8497643E0,3.1742036E-2,-2.1268612E-2,1.5061845E-1,3.5306644E-2],"categories":[],"categories_nodes":[],"categories_segments":[],"categories_sizes":[],"default_left":[0,0,0,0,0,0,0,0,0,0,0,0,0,0,0,0,0,0,0,0,0,0,0,0,0,0,0],"id":29,"left_children":[1,3,5,7,9,11,13,-1,-1,-1,15,17,-1,-1,19,-1,21,-1,23,-1,-1,-1,25,-1,-1,-1,-1],"loss_changes":[2.4814226E1,3.3358013E1,8.3824835E0,6.881285E-1,1.6294952E1,5.0180874E0,5.9068093E0,0E0,0E0,0E0,1.209462E1,7.7562046E-1,0E0,0E0,2.8938951E0,0E0,7.3487396E0,0E0,1.6026198E0,0E0,0E0,0E0,1.385704E0,0E0,0E0,0E0,0E0],"parents":[2147483647,0,0,1,1,2,2,3,3,4,4,5,5,6,6,10,10,11,11,14,14,16,16,18,18,22,22],"right_children":[2,4,6,8,10,12,14,-1,-1,-1,16,18,-1,-1,20,-1,22,-1,24,-1,-1,-1,26,-1,-1,-1,-1],"split_conditions":[4.3005165E-2,1.4715686E-2,1.6098732E1,2.7644895E-2,2.4745485E-1,7.816601E1,5.351248E0,-2.5380824E-2,9.479627E-3,-1.9926025E-2,3.0378506E-1,1.7539265E1,5.3038258E-2,-1.8382287E-2,6.3329434E0,-1.6265195E-2,8.879006E0,-2.7146954E-2,4.9073234E-2,1.15771495E-1,8.794077E-3,7.092736E-3,3.2018858E-1,3.1742036E-2,-2.1268612E-2,1.5061845E-1,3.5306644E-2],"split_indices":[64,65,2,73,48,14,25,0,0,0,31,50,0,0,25,0,19,0,64,0,0,0,49,0,0,0,0],"split_type":[0,0,0,0,0,0,0,0,0,0,0,0,0,0,0,0,0,0,0,0,0,0,0,0,0,0,0],"sum_hessian":[9.176969E1,2.6515886E1,6.525381E1,1.2202202E1,1.4313684E1,6.08939E1,4.3599067E0,1.1116999E1,1.085203E0,2.5855737E0,1.172811E1,5.9700356E1,1.1935455E0,1.9617813E0,2.3981254E0,1.4171971E0,1.0310913E1,5.524056E1,4.459795E0,1.2773821E0,1.1207432E0,1.2329037E0,9.07801E0,1.141319E0,3.3184762E0,8.06126E0,1.0167491E0],"tree_param":{"num_deleted":"0","num_feature":"80","num_nodes":"27","size_leaf_vector":"1"}},{"base_weights":[-4.5531034E-2,1.2686732E0,-5.1518893E-1,2.5792105E0,2.0669402E-1,-2.714724E-2,2.1521811E-1,1.3593407E-1,3.302731E-2,1.7850773E0,-2.5209848E-2,-1.5528279E-2,3.4739014E-2,7.0625977E-3,1.1438179E-1],"categories":[],"categories_nodes":[],"categories_segments":[],"categories_sizes":[],"default_left":[0,0,0,0,0,0,0,0,0,0,0,0,0,0,0],"id":30,"left_children":[1,3,5,7,9,-1,11,-1,-1,13,-1,-1,-1,-1,-1],"loss_changes":[5.911377E1,3.457458E1,1.5458794E0,1.2024002E0,1.7754648E1,0E0,1.0470209E0,0E0,0E0,3.7122746E0,0E0,0E0,0E0,0E0,0E0],"parents":[2147483647,0,0,1,1,2,2,3,3,4,4,6,6,9,9],"right_children":[2,4,6,8,10,-1,12,-1,-1,14,-1,-1,-1,-1,-1],"split_conditions":[-7.82836E0,1.0232632E1,3.5533494E-1,1.6885151E-1,6.173683E0,-2.714724E-2,3.4991193E-1,1.3593407E-1,3.302731E-2,-5.4175274E1,-2.5209848E-2,-1.5528279E-2,3.4739014E-2,7.0625977E-3,1.1438179E-1],"split_indices":[5,50,47,75,21,0,41,0,0,2,0,0,0,0,0],"split_type":[0,0,0,0,0,0,0,0,0,0,0,0,0,0,0],"sum_hessian":[9.3714294E1,2.4225328E1,6.948897E1,1.020417E1,1.4021159E1,6.719228E1,2.296687E0,9.123968E0,1.0802015E0,3.884781E0,1.0136378E1,1.2636453E0,1.0330416E0,1.2095414E0,2.6752393E0],"tree_param":{"num_deleted":"0","num_feature":"80","num_nodes":"15","size_leaf_vector":"1"}},{"base_weights":[-2.244091E-2,1.9238219E0,-2.3487459E-1,-1.8864913E-2,1.3237889E-1,-3.5461733E-1,1.1878494E-1,1.3367014E0,-4.2220062E-1,7.706149E-3,9.412471E-2,-5.2633226E-1,-9.182811E-2,9.409616E-3,-2.7119726E-2,5.132101E-1,-2.5443364E-2,-2.2614678E-2,1.6363995E0,9.124686E-3,1.03807986E-1],"categories":[],"categories_nodes":[],"categories_segments":[],"categories_sizes":[],"default_left":[0,0,0,0,0,0,0,0,0,0,0,0,0,0,0,0,0,0,0,0,0],"id":31,"left_children":[1,3,5,-1,-1,7,-1,9,11,-1,-1,13,15,-1,-1,17,-1,-1,19,-1,-1],"loss_changes":[3.9513783E1,1.666444E1,2.774814E1,0E0,0E0,1.0070717E1,0E0,1.9273453E0,2.7289991E0,0E0,0E0,8.041382E-1,5.4487123E0,0E0,0E0,1.0377155E1,0E0,0E0,2.3860044E0,0E0,0E0],"parents":[2147483647,0,0,1,1,2,2,5,5,7,7,8,8,11,11,12,12,15,15,18,18],"right_children":[2,4,6,-1,-1,8,-1,10,12,-1,-1,14,16,-1,-1,18,-1,-1,20,-1,-1],"split_conditions":[-4.28932E1,-1.2432217E1,1.945981E2,-1.8864913E-2,1.3237889E-1,3.402867E-2,1.1878494E-1,1.4319636E-2,2.501872E0,7.706149E-3,9.412471E-2,4.489082E0,7.508708E-2,9.409616E-3,-2.7119726E-2,3.4570928E0,-2.5443364E-2,-2.2614678E-2,4.804086E-1,9.124686E-3,1.03807986E-1],"split_indices":[4,11,13,0,0,74,0,67,8,0,0,23,77,0,0,58,0,0,33,0,0],"split_type":[0,0,0,0,0,0,0,0,0,0,0,0,0,0,0,0,0,0,0,0,0],"sum_hessian":[9.347758E1,8.406182E0,8.507139E1,2.1258657E0,6.280317E0,8.21667E1,2.904691E0,2.435598E0,7.97311E1,1.174081E0,1.261517E0,6.0172047E1,1.9559057E1,1.0873041E0,5.9084743E1,7.8866057E0,1.1672451E1,4.562206E0,3.3244002E0,1.1006126E0,2.2237875E0],"tree_param":{"num_deleted":"0","num_feature":"80","num_nodes":"21","size_leaf_vector":"1"}},{"base_weights":[-2.0683745E-2,-4.8119012E-1,9.8982334E-1,-2.711527E-2,3.7231168E-1,-2.4820613E-2,1.666754E0,-1.978643E-2,6.9139145E-2,-2.2124145E-2,2.210988E0,-1.8137349E-2,2.5768187E0,2.9324755E-2,1.3584979E-1],"categories":[],"categories_nodes":[],"categories_segments":[],"categories_sizes":[],"default_left":[0,0,0,0,0,0,0,0,0,0,0,0,0,0,0],"id":32,"left_children":[1,3,5,-1,7,-1,9,-1,-1,-1,11,-1,13,-1,-1],"loss_changes":[4.3301605E1,3.5346403E0,3.0141703E1,0E0,4.320702E0,0E0,2.4222107E1,0E0,0E0,0E0,1.624656E1,0E0,2.4134293E0,0E0,0E0],"parents":[2147483647,0,0,1,1,2,2,4,4,6,6,10,10,12,12],"right_children":[2,4,6,-1,8,-1,10,-1,-1,-1,12,-1,14,-1,-1],"split_conditions":[8.796323E0,8.518069E-2,-3.2923884E0,-2.711527E-2,7.2433953E0,-2.4820613E-2,2.9992945E-2,-1.978643E-2,6.9139145E-2,-2.2124145E-2,3.9037035E0,-1.8137349E-2,9.53701E-2,2.9324755E-2,1.3584979E-1],"split_indices":[24,65,7,0,24,0,66,0,0,0,57,0,77,0,0],"split_type":[0,0,0,0,0,0,0,0,0,0,0,0,0,0,0],"sum_hessian":[9.1029175E1,6.2891975E1,2.8137197E1,5.902974E1,3.8622334E0,8.888569E0,1.924863E1,2.5399995E0,1.3222339E0,3.9862926E0,1.5262337E1,1.900455E0,1.3361882E1,1.2202305E0,1.2141651E1],"tree_param":{"num_deleted":"0","num_feature":"80","num_nodes":"15","size_leaf_vector":"1"}},{"base_weights":[-1.0761922E-2,-4.395401E-1,1.6692542E0,-5.1682365E-1,1.1835886E0,1.4094196E-1,-2.4291512E-1,3.5290692E-2,-2.7190214E-2,-1.5982665E-2,1.09237134E-1,-2.3782691E-2,3.5407916E-2],"categories":[],"categories_nodes":[],"categories_segments":[],"categories_sizes":[],"default_left":[0,0,0,0,0,0,0,0,0,0,0,0,0],"id":33,"left_children":[1,3,5,7,9,-1,11,-1,-1,-1,-1,-1,-1],"loss_changes":[6.8663284E1,1.0134936E1,4.3291092E1,2.797306E0,6.3486457E0,0E0,2.1514976E0,0E0,0E0,0E0,0E0,0E0,0E0],"parents":[2147483647,0,0,1,1,2,2,3,3,4,4,6,6],"right_children":[2,4,6,8,10,-1,12,-1,-1,-1,-1,-1,-1],"split_conditions":[7.9584986E-2,1.8710344E1,-7.5392513E0,1.8310757E-1,1.7571388E1,1.4094196E-1,3.9334488E-1,3.5290692E-2,-2.7190214E-2,-1.5982665E-2,1.09237134E-1,-2.3782691E-2,3.5407916E-2],"split_indices":[79,50,7,26,4,0,27,0,0,0,0,0,0],"split_type":[0,0,0,0,0,0,0,0,0,0,0,0,0],"sum_hessian":[9.3300255E1,7.4917885E1,1.838237E1,7.216348E1,2.7544012E0,1.1184284E1,7.1980853E0,1.0148567E0,7.114863E1,1.3732176E0,1.3811836E0,6.1845345E0,1.0135504E0],"tree_param":{"num_deleted":"0","num_feature":"80","num_nodes":"13","size_leaf_vector":"1"}},{"base_weights":[-5.780329E-2,1.1042519E0,-3.5501462E-1,1.7540429E0,-3.2299313E-1,5.0034855E-2,-5.2188337E-1,-2.0871155E-2,2.4297514E0,-2.2698188E-2,8.951697E-3,-3.3510402E-1,9.3619233E-1,-2.7036188E-2,9.402976E-3,1.34917E-1,8.3200345E-3,4.6023434E-1,-2.556673E-2,1.0129576E-1,-2.070518E-2,5.7069626E-2,-1.6147127E-2],"categories":[],"categories_nodes":[],"categories_segments":[],"categories_sizes":[],"default_left":[0,0,0,0,0,0,0,0,0,0,0,0,0,0,0,0,0,0,0,0,0,0,0],"id":34,"left_children":[1,3,5,7,9,11,13,-1,15,-1,-1,17,19,-1,-1,-1,-1,21,-1,-1,-1,-1,-1],"loss_changes":[3.1879728E1,1.801291E1,4.9843493E0,2.0209454E1,5.2375877E-1,7.9300456E0,7.977743E-1,0E0,5.7055206E0,0E0,0E0,2.5188417E0,1.117473E1,0E0,0E0,0E0,0E0,2.2258334E0,0E0,0E0,0E0,0E0,0E0],"parents":[2147483647,0,0,1,1,2,2,3,3,4,4,5,5,6,6,8,8,11,11,12,12,17,17],"right_children":[2,4,6,8,10,12,14,-1,16,-1,-1,18,20,-1,-1,-1,-1,22,-1,-1,-1,-1,-1],"split_conditions":[1.4297935E1,2.3242154E0,-2.0911205E1,3.9308906E0,4.495483E0,1.4875307E1,1.1044744E1,-2.0871155E-2,1.934011E-2,-2.2698188E-2,8.951697E-3,2.4215737E-1,1.3285047E1,-2.7036188E-2,9.402976E-3,1.34917E-1,8.3200345E-3,4.177499E1,-2.556673E-2,1.0129576E-1,-2.070518E-2,5.7069626E-2,-1.6147127E-2],"split_indices":[53,12,4,5,63,50,63,0,67,0,0,43,17,0,0,0,0,3,0,0,0,0,0],"split_type":[0,0,0,0,0,0,0,0,0,0,0,0,0,0,0,0,0,0,0,0,0,0,0],"sum_hessian":[9.016936E1,1.7811905E1,7.235745E1,1.2082194E1,5.72971E0,2.131604E1,5.1041416E1,2.9581351E0,9.124059E0,4.620132E0,1.1095781E0,1.5291809E1,6.0242305E0,4.9954094E1,1.0873234E0,7.9843755E0,1.1396835E0,2.4814305E0,1.2810379E1,3.0568924E0,2.967338E0,1.0825279E0,1.3989027E0],"tree_param":{"num_deleted":"0","num_feature":"80","num_nodes":"23","size_leaf_vector":"1"}},{"base_weights":[6.210475E-3,8.300344E-1,-5.0944066E-1,-4.5727462E-1,1.739661E0,-2.7110273E-2,3.4332912E-2,1.0144733E-2,-2.57953E-2,2.4125655E0,-3.1053862E-1,-1.7348634E-2,2.7439272E0,-2.2400199E-2,9.24952E-3,3.4021508E-2,1.4247347E-1],"categories":[],"categories_nodes":[],"categories_segments":[],"categories_sizes":[],"default_left":[0,0,0,0,0,0,0,0,0,0,0,0,0,0,0,0,0],"id":35,"left_children":[1,3,5,7,9,-1,-1,-1,-1,11,13,-1,15,-1,-1,-1,-1],"loss_changes":[4.1500816E1,4.483076E1,2.7273264E0,7.38003E-1,3.1436058E1,0E0,0E0,0E0,0E0,1.6369812E1,5.176425E-1,0E0,1.364006E0,0E0,0E0,0E0,0E0],"parents":[2147483647,0,0,1,1,2,2,3,3,4,4,9,9,10,10,12,12],"right_children":[2,4,6,8,10,-1,-1,-1,-1,12,14,-1,16,-1,-1,-1,-1],"split_conditions":[1.0083629E-2,1.8685358E1,2.5269861E1,-4.149037E0,3.0610726E0,-2.7110273E-2,3.4332912E-2,1.0144733E-2,-2.57953E-2,3.8689265E0,4.820019E-1,-1.7348634E-2,4.3710166E-1,-2.2400199E-2,9.24952E-3,3.4021508E-2,1.4247347E-1],"split_indices":[67,14,7,9,62,0,0,0,0,57,30,0,27,0,0,0,0],"split_type":[0,0,0,0,0,0,0,0,0,0,0,0,0,0,0,0,0],"sum_hessian":[9.5698235E1,3.6605774E1,5.909246E1,1.536228E1,2.1243494E1,5.804901E1,1.0434492E0,1.0523751E0,1.4309904E1,1.5860958E1,5.3825364E0,1.6953328E0,1.4165626E1,4.2887077E0,1.0938284E0,1.0516388E0,1.3113986E1],"tree_param":{"num_deleted":"0","num_feature":"80","num_nodes":"17","size_leaf_vector":"1"}},{"base_weights":[1.6944852E-3,1.422922E0,-4.722991E-1,2.2935882E0,-2.6438287E-1,-5.141043E-1,3.7465397E-2,1.3648866E-1,-1.857609E-2,-2.4067935E-2,3.5712373E-2,-2.7164519E-2,3.3982724E-2],"categories":[],"categories_nodes":[],"categories_segments":[],"categories_sizes":[],"default_left":[0,0,0,0,0,0,0,0,0,0,0,0,0],"id":36,"left_children":[1,3,5,7,9,11,-1,-1,-1,-1,-1,-1,-1],"loss_changes":[6.269501E1,3.4800323E1,3.949561E0,1.8982254E1,2.2164495E0,2.741148E0,0E0,0E0,0E0,0E0,0E0,0E0,0E0],"parents":[2147483647,0,0,1,1,2,2,3,3,4,4,5,5],"right_children":[2,4,6,8,10,12,-1,-1,-1,-1,-1,-1,-1],"split_conditions":[3.266704E0,5.122208E-1,5.5463057E-2,4.115431E1,2.655065E-1,1.6160635E1,3.7465397E-2,1.3648866E-1,-1.857609E-2,-2.4067935E-2,3.5712373E-2,-2.7164519E-2,3.3982724E-2],"split_indices":[59,28,72,13,45,12,0,0,0,0,0,0,0],"split_type":[0,0,0,0,0,0,0,0,0,0,0,0,0],"sum_hessian":[9.106964E1,2.2275764E1,6.879388E1,1.4456662E1,7.8191023E0,6.7077545E1,1.7163357E0,1.2402538E1,2.0541236E0,6.8160257E0,1.0030766E0,6.60086E1,1.0689456E0],"tree_param":{"num_deleted":"0","num_feature":"80","num_nodes":"13","size_leaf_vector":"1"}},{"base_weights":[6.1948825E-2,-4.8800075E-1,8.678457E-1,-5.230113E-1,3.1281993E-2,-4.1323593E-1,1.3484927E0,9.6772285E-3,-2.7048994E-2,1.0136844E-2,-2.48809E-2,2.15949E0,1.9702564E-1,1.2386569E-1,2.5636806E0,1.11419216E-1,-4.069679E-1,3.4905594E-2,-1.746726E-2,1.3808487E-1,9.032683E-3,9.180561E-3,-2.4737395E-2],"categories":[],"categories_nodes":[],"categories_segments":[],"categories_sizes":[],"default_left":[0,0,0,0,0,0,0,0,0,0,0,0,0,0,0,0,0,0,0,0,0,0,0],"id":37,"left_children":[1,3,5,7,-1,9,11,-1,-1,-1,-1,13,15,17,19,-1,21,-1,-1,-1,-1,-1,-1],"loss_changes":[4.157955E1,2.5041828E0,2.3971321E1,8.087082E-1,0E0,6.798991E-1,2.5615131E1,0E0,0E0,0E0,0E0,1.3061981E1,1.6395926E1,1.261464E0,5.8793335E0,0E0,6.3913727E-1,0E0,0E0,0E0,0E0,0E0,0E0],"parents":[2147483647,0,0,1,1,2,2,3,3,5,5,6,6,11,11,12,12,13,13,14,14,16,16],"right_children":[2,4,6,8,-1,10,12,-1,-1,-1,-1,14,16,18,20,-1,22,-1,-1,-1,-1,-1,-1],"split_conditions":[1.4561647E1,3.6428753E-1,5.425017E-2,2.7754128E-1,3.1281993E-2,-6.574866E-2,8.742972E0,9.6772285E-3,-2.7048994E-2,1.0136844E-2,-2.48809E-2,-4.732537E-2,8.5423975E0,2.516118E1,4.813632E-1,1.11419216E-1,3.9014727E-2,3.4905594E-2,-1.746726E-2,1.3808487E-1,9.032683E-3,9.180561E-3,-2.4737395E-2],"split_indices":[52,49,64,37,0,71,21,0,0,0,0,68,24,14,37,0,67,0,0,0,0,0,0],"split_type":[0,0,0,0,0,0,0,0,0,0,0,0,0,0,0,0,0,0,0,0,0,0,0],"sum_hessian":[9.186054E1,5.4835133E1,3.702541E1,5.3677967E1,1.1571648E0,1.0139794E1,2.6885616E1,1.0740824E0,5.2603886E1,1.0526975E0,9.087096E0,1.5261361E1,1.1624255E1,2.7446964E0,1.25166645E1,2.047766E0,9.5764885E0,1.0252633E0,1.7194331E0,1.14096775E1,1.106987E0,1.0979328E0,8.478556E0],"tree_param":{"num_deleted":"0","num_feature":"80","num_nodes":"23","size_leaf_vector":"1"}},{"base_weights":[-1.0558459E-2,-4.5139498E-1,1.823002E0,-4.9016508E-1,5.882446E-2,2.3847346E0,-2.1448823E-2,5.4232E-2,-5.3008974E-1,-1.802876E-2,1.40325E-1,-2.7176997E-2,-4.2969946E-2,-1.3992257E-2,1.0794631E-2],"categories":[],"categories_nodes":[],"categories_segments":[],"categories_sizes":[],"default_left":[0,0,0,0,0,0,0,0,0,0,0,0,0,0,0],"id":38,"left_children":[1,3,5,7,-1,9,-1,-1,11,-1,-1,-1,13,-1,-1],"loss_changes":[7.546704E1,5.325903E0,2.3916756E1,5.240471E0,0E0,1.79599E1,0E0,0E0,4.55204E-1,0E0,0E0,0E0,2.473421E-1,0E0,0E0],"parents":[2147483647,0,0,1,1,2,2,3,3,5,5,8,8,12,12],"right_children":[2,4,6,8,-1,10,-1,-1,12,-1,-1,-1,14,-1,-1],"split_conditions":[6.014338E-1,7.298814E-1,1.2679485E1,9.134126E-3,5.882446E-2,1.0610242E1,-2.1448823E-2,5.4232E-2,2.0657469E1,-1.802876E-2,1.40325E-1,-2.7176997E-2,2.7435095E1,-1.3992257E-2,1.0794631E-2],"split_indices":[29,33,50,65,0,3,0,0,9,0,0,0,14,0,0],"split_type":[0,0,0,0,0,0,0,0,0,0,0,0,0,0,0],"sum_hessian":[9.134703E1,7.424934E1,1.7097692E1,7.3204765E1,1.0445693E0,1.3637107E1,3.460586E0,1.1630173E0,7.204175E1,1.8353982E0,1.1801709E1,6.999329E1,2.048456E0,1.0273294E0,1.0211265E0],"tree_param":{"num_deleted":"0","num_feature":"80","num_nodes":"15","size_leaf_vector":"1"}},{"base_weights":[1.7898155E-2,7.672963E-1,-3.7238452E-1,-1.9030252E-1,1.999736E0,4.735045E-1,-4.8424593E-1,-2.5770495E-2,1.2190415E0,-3.625277E-4,1.3663483E-1,-2.278871E-2,1.1807885E-1,-5.2130526E-1,1.9640904E-2,9.942707E-2,-1.4673238E-2,3.4892425E-2,-1.9857679E-2,-2.7015397E-2,-1.7691581E-1,-1.856404E-2,9.752153E-3],"categories":[],"categories_nodes":[],"categories_segments":[],"categories_sizes":[],"default_left":[0,0,0,0,0,0,0,0,0,0,0,0,0,0,0,0,0,0,0,0,0,0,0],"id":39,"left_children":[1,3,5,7,9,11,13,-1,15,17,-1,-1,-1,19,-1,-1,-1,-1,-1,-1,21,-1,-1],"loss_changes":[2.597269E1,3.6261097E1,5.757416E0,8.885801E0,1.9616657E1,1.393573E1,1.8980064E0,0E0,4.8610744E0,1.5483085E0,0E0,0E0,0E0,2.3432255E-1,0E0,0E0,0E0,0E0,0E0,0E0,3.7049085E-1,0E0,0E0],"parents":[2147483647,0,0,1,1,2,2,3,3,4,4,5,5,6,6,8,8,9,9,13,13,20,20],"right_children":[2,4,6,8,10,12,14,-1,16,18,-1,-1,-1,20,-1,-1,-1,-1,-1,-1,22,-1,-1],"split_conditions":[-3.2239928E0,1.3300006E2,2.2955768E0,2.6214316E0,1.067228E1,2.7196097E-1,6.0804058E1,-2.5770495E-2,1.6395144E1,2.3322282E-3,1.3663483E-1,-2.278871E-2,1.1807885E-1,5.1813545E1,1.9640904E-2,9.942707E-2,-1.4673238E-2,3.4892425E-2,-1.9857679E-2,-2.7015397E-2,4.5467494E-3,-1.856404E-2,9.752153E-3],"split_indices":[12,1,61,2,19,38,3,0,16,67,0,0,0,3,0,0,0,0,0,0,73,0,0],"split_type":[0,0,0,0,0,0,0,0,0,0,0,0,0,0,0,0,0,0,0,0,0,0,0],"sum_hessian":[8.6825554E1,2.9402527E1,5.7423027E1,1.7022064E1,1.2380462E1,6.329182E0,5.1093845E1,1.434683E1,2.6752348E0,3.588282E0,8.792179E0,4.7499413E0,1.5792408E0,4.9411636E1,1.6822093E0,1.5645331E0,1.1107017E0,1.025332E0,2.5629501E0,4.628864E1,3.1229944E0,2.0523658E0,1.0706289E0],"tree_param":{"num_deleted":"0","num_feature":"80","num_nodes":"23","size_leaf_vector":"1"}},{"base_weights":[-1.2230685E-2,1.2933327E0,-4.5641583E-1,2.0613482E0,-2.413206E-2,-5.263584E-1,7.077588E-1,-1.9335197E-2,1.2343134E-1,-1.4737783E-1,-2.7044913E-2,-1.8045394E-2,8.3248116E-2,1.01208715E-2,-1.7695336E-2],"categories":[],"categories_nodes":[],"categories_segments":[],"categories_sizes":[],"default_left":[0,0,0,0,0,0,0,0,0,0,0,0,0,0,0],"id":40,"left_children":[1,3,5,7,-1,9,11,-1,-1,13,-1,-1,-1,-1,-1],"loss_changes":[5.4044098E1,3.3266907E1,6.032858E0,1.7612236E1,0E0,2.8478813E-1,5.0672607E0,0E0,0E0,3.4750313E-1,0E0,0E0,0E0,0E0,0E0],"parents":[2147483647,0,0,1,1,2,2,3,3,5,5,6,6,9,9],"right_children":[2,4,6,8,-1,10,12,-1,-1,14,-1,-1,-1,-1,-1],"split_conditions":[-1.1754714E1,1.7602839E1,3.5533494E-1,1.2859951E1,-2.413206E-2,-9.378722E0,4.7339005E0,-1.9335197E-2,1.2343134E-1,1.3316073E1,-2.7044913E-2,-1.8045394E-2,8.3248116E-2,1.01208715E-2,-1.7695336E-2],"split_indices":[5,15,47,52,0,5,2,0,0,17,0,0,0,0,0],"split_type":[0,0,0,0,0,0,0,0,0,0,0,0,0,0,0],"sum_hessian":[9.117573E1,2.266026E1,6.851547E1,1.5707086E1,6.9531746E0,6.514923E1,3.3662384E0,2.247632E0,1.3459454E1,2.8185978E0,6.2330635E1,1.8848547E0,1.4813837E0,1.0537621E0,1.7648357E0],"tree_param":{"num_deleted":"0","num_feature":"80","num_nodes":"15","size_leaf_vector":"1"}},{"base_weights":[4.551525E-2,1.8735139E0,-1.9029412E-1,-1.809141E-2,1.19599976E-1,6.078618E-1,-4.77572E-1,-4.4521728E-1,2.2517827E0,-2.698707E-2,-1.0440525E-1,-2.5491042E-2,9.1649005E-3,8.783522E-3,1.2617779E-1,-2.4091642E-2,9.051101E-1,8.443001E-2,-1.4441679E-2],"categories":[],"categories_nodes":[],"categories_segments":[],"categories_sizes":[],"default_left":[0,0,0,0,0,0,0,0,0,0,0,0,0,0,0,0,0,0,0],"id":41,"left_children":[1,3,5,-1,-1,7,9,11,13,-1,15,-1,-1,-1,-1,-1,17,-1,-1],"loss_changes":[4.060438E1,1.3336906E1,1.9461245E1,0E0,0E0,4.007266E1,1.3829622E0,6.859169E-1,4.6219254E0,0E0,4.284292E0,0E0,0E0,0E0,0E0,0E0,3.3836982E0,0E0,0E0],"parents":[2147483647,0,0,1,1,2,2,5,5,6,6,7,7,8,8,10,10,16,16],"right_children":[2,4,6,-1,-1,8,10,12,14,-1,16,-1,-1,-1,-1,-1,18,-1,-1],"split_conditions":[-4.28932E1,-3.9129266E2,6.671758E-2,-1.809141E-2,1.19599976E-1,1.1627061E-2,5.80059E-1,1.712123E1,1.8837574E1,-2.698707E-2,4.4193584E-2,-2.5491042E-2,9.1649005E-3,8.783522E-3,1.2617779E-1,-2.4091642E-2,1.9813875E1,8.443001E-2,-1.4441679E-2],"split_indices":[4,0,77,0,0,67,36,16,15,0,65,0,0,0,0,0,15,0,0],"split_type":[0,0,0,0,0,0,0,0,0,0,0,0,0,0,0,0,0,0,0],"sum_hessian":[9.236968E1,9.760564E0,8.2609116E1,1.8945876E0,7.8659763E0,2.156851E1,6.1040607E1,1.359126E1,7.9772496E0,5.19409E1,9.099709E0,1.2495707E1,1.0955534E0,1.1139576E0,6.863292E0,7.0038776E0,2.0958314E0,1.0152797E0,1.0805516E0],"tree_param":{"num_deleted":"0","num_feature":"80","num_nodes":"19","size_leaf_vector":"1"}},{"base_weights":[3.2360688E-2,-2.704593E-2,1.1378168E0,-2.743468E-1,1.9638147E0,6.175297E-1,-2.4995523E-2,-1.9952228E-2,2.3289196E0,6.071734E-2,-1.3950248E-2,1.2098233E-1,2.9223189E-2],"categories":[],"categories_nodes":[],"categories_segments":[],"categories_sizes":[],"default_left":[0,0,0,0,0,0,0,0,0,0,0,0,0],"id":42,"left_children":[1,-1,3,5,7,9,-1,-1,11,-1,-1,-1,-1],"loss_changes":[5.9823334E1,0E0,3.812975E1,2.877886E0,1.8576683E1,1.9575286E0,0E0,0E0,1.413208E0,0E0,0E0,0E0,0E0],"parents":[2147483647,0,0,2,2,3,3,4,4,5,5,8,8],"right_children":[2,-1,4,6,8,10,-1,-1,12,-1,-1,-1,-1],"split_conditions":[3.641971E1,-2.704593E-2,8.115868E-2,-1.7002126E-2,-3.2923884E0,3.0063623E-1,-2.4995523E-2,-1.9952228E-2,1.3203289E1,6.071734E-2,-1.3950248E-2,1.2098233E-1,2.9223189E-2],"split_indices":[15,0,64,72,7,31,0,0,22,0,0,0,0],"split_type":[0,0,0,0,0,0,0,0,0,0,0,0,0],"sum_hessian":[9.242684E1,6.1199852E1,3.1226992E1,1.1770859E1,1.9456135E1,2.0252643E0,9.745594E0,2.5915265E0,1.6864607E1,1.0030507E0,1.0222137E0,1.5662949E1,1.2016591E0],"tree_param":{"num_deleted":"0","num_feature":"80","num_nodes":"13","size_leaf_vector":"1"}},{"base_weights":[2.1795113E-2,-4.2033505E-1,1.6164086E0,8.989283E-2,-5.006201E-1,1.24247015E-1,-2.3524597E-2,5.4956358E-2,-2.7110768E-2],"categories":[],"categories_nodes":[],"categories_segments":[],"categories_sizes":[],"default_left":[0,0,0,0,0,0,0,0,0],"id":43,"left_children":[1,3,5,-1,7,-1,-1,-1,-1],"loss_changes":[6.552145E1,1.3864791E1,3.7730164E1,0E0,5.323042E0,0E0,0E0,0E0,0E0],"parents":[2147483647,0,0,1,1,2,2,4,4],"right_children":[2,4,6,-1,8,-1,-1,-1,-1],"split_conditions":[7.9584986E-2,2.056653E-2,-7.182956E0,8.989283E-2,1.7446144E-1,1.24247015E-1,-2.3524597E-2,5.4956358E-2,-2.7110768E-2],"split_indices":[79,64,7,0,30,0,0,0,0],"split_type":[0,0,0,0,0,0,0,0,0],"sum_hessian":[9.0970985E1,7.179983E1,1.917116E1,1.7606795E0,7.003915E1,1.3402529E1,5.7686315E0,1.1306379E0,6.890851E1],"tree_param":{"num_deleted":"0","num_feature":"80","num_nodes":"9","size_leaf_vector":"1"}},{"base_weights":[-3.5379738E-2,7.4013126E-1,-4.699809E-1,1.5224087E0,-3.6864215E-1,3.4640424E-2,-2.6944209E-2,1.2091058E-1,1.0888095E-1,3.5407655E-2,-2.5406782E-2,4.8237216E-2,-2.2762619E-2,-2.207041E-2,7.0865357E-1,6.41179E-2,-1.5932543E-2],"categories":[],"categories_nodes":[],"categories_segments":[],"categories_sizes":[],"default_left":[0,0,0,0,0,0,0,0,0,0,0,0,0,0,0,0,0],"id":44,"left_children":[1,3,5,7,9,11,-1,-1,13,-1,-1,-1,-1,-1,15,-1,-1],"loss_changes":[2.9683168E1,2.80113E1,1.9793892E0,2.3479664E1,2.4472198E0,3.9542906E0,0E0,0E0,3.0590274E0,0E0,0E0,0E0,0E0,0E0,2.9813035E0,0E0,0E0],"parents":[2147483647,0,0,1,1,2,2,3,3,4,4,5,5,8,8,14,14],"right_children":[2,4,6,8,10,12,-1,-1,14,-1,-1,-1,-1,-1,16,-1,-1],"split_conditions":[1.5457357E-2,3.596999E1,1.5557988E1,-2.0911205E1,-4.5025513E-2,-6.5026362E-3,-2.6944209E-2,1.2091058E-1,5.2593154E-1,3.5407655E-2,-2.5406782E-2,4.8237216E-2,-2.2762619E-2,-2.207041E-2,1.0478541E0,6.41179E-2,-1.5932543E-2],"split_indices":[66,3,55,4,70,69,0,0,27,0,0,0,0,0,8,0,0],"split_type":[0,0,0,0,0,0,0,0,0,0,0,0,0,0,0,0,0],"sum_hessian":[8.603863E1,3.0647537E1,5.539109E1,1.7750732E1,1.2896805E1,6.7144275E0,4.8676662E1,1.0430066E1,7.320666E0,1.0115691E0,1.1885235E1,1.9820457E0,4.732382E0,3.9555264E0,3.3651397E0,1.9999697E0,1.3651701E0],"tree_param":{"num_deleted":"0","num_feature":"80","num_nodes":"17","size_leaf_vector":"1"}},{"base_weights":[4.5125302E-2,1.2248173E0,-3.6039543E-1,-2.8461298E-1,2.0752156E0,2.0286404E-1,-5.0496495E-1,-2.4264459E-2,3.294065E-2,2.4344656E0,-1.798184E-2,-3.342168E-1,1.5137615E0,-2.6956385E-2,-2.051503E-1,1.2691483E-1,3.2468177E-2,3.1502124E-2,-2.49695E-2,1.01392545E-1,5.954459E-3,3.249324E-2,-2.3079434E-2],"categories":[],"categories_nodes":[],"categories_segments":[],"categories_sizes":[],"default_left":[0,0,0,0,0,0,0,0,0,0,0,0,0,0,0,0,0,0,0,0,0,0,0],"id":45,"left_children":[1,3,5,7,9,11,13,-1,-1,15,-1,17,19,-1,21,-1,-1,-1,-1,-1,-1,-1,-1],"loss_changes":[4.509585E1,3.1533417E1,5.8218756E0,2.1308382E0,1.4468353E1,1.110828E1,4.6480465E-1,0E0,0E0,8.8549805E-1,0E0,2.146473E0,3.0261354E0,0E0,1.9138865E0,0E0,0E0,0E0,0E0,0E0,0E0,0E0,0E0],"parents":[2147483647,0,0,1,1,2,2,3,3,4,4,5,5,6,6,9,9,11,11,12,12,14,14],"right_children":[2,4,6,8,10,12,14,-1,-1,16,-1,18,20,-1,22,-1,-1,-1,-1,-1,-1,-1,-1],"split_conditions":[4.790513E-3,1.8366531E1,1.0083629E-2,6.79001E-1,2.9854639E0,1.6578382E1,1.2485506E1,-2.4264459E-2,3.294065E-2,8.828971E0,-1.798184E-2,-9.69996E0,-3.2647228E0,-2.6956385E-2,5.682078E-2,1.2691483E-1,3.2468177E-2,3.1502124E-2,-2.49695E-2,1.01392545E-1,5.954459E-3,3.249324E-2,-2.3079434E-2],"split_indices":[67,14,67,37,62,16,51,0,0,9,0,11,11,0,79,0,0,0,0,0,0,0,0],"split_type":[0,0,0,0,0,0,0,0,0,0,0,0,0,0,0,0,0,0,0,0,0,0,0],"sum_hessian":[9.2343254E1,2.3105928E1,6.923733E1,8.566312E0,1.4539616E1,1.4058924E1,5.5178406E1,7.464209E0,1.1021024E0,1.2670331E1,1.8692849E0,1.050147E1,3.5574539E0,4.881762E1,6.3607864E0,1.1575129E1,1.0952024E0,1.1241856E0,9.377284E0,2.267598E0,1.289856E0,1.1136076E0,5.2471786E0],"tree_param":{"num_deleted":"0","num_feature":"80","num_nodes":"23","size_leaf_vector":"1"}},{"base_weights":[-6.797787E-4,1.3282744E0,-4.8493266E-1,2.2137072E0,-3.8853297E-1,5.0217617E-1,-5.270196E-1,1.2459101E-1,-1.6748423E-2,-2.425234E-2,9.02288E-3,5.944949E-2,-1.5674328E-2,9.913058E-3,-2.7085101E-2],"categories":[],"categories_nodes":[],"categories_segments":[],"categories_sizes":[],"default_left":[0,0,0,0,0,0,0,0,0,0,0,0,0,0,0],"id":46,"left_children":[1,3,5,7,9,11,13,-1,-1,-1,-1,-1,-1,-1,-1],"loss_changes":[6.1028446E1,3.9359535E1,3.1521358E0,1.2784218E1,6.074853E-1,2.2518258E0,8.224602E-1,0E0,0E0,0E0,0E0,0E0,0E0,0E0,0E0],"parents":[2147483647,0,0,1,1,2,2,3,3,4,4,5,5,6,6],"right_children":[2,4,6,8,10,12,14,-1,-1,-1,-1,-1,-1,-1,-1],"split_conditions":[3.266704E0,3.6610424E1,3.169163E0,5.430782E-1,3.2212605E1,3.985616E1,1.9106962E-2,1.2459101E-1,-1.6748423E-2,-2.425234E-2,9.02288E-3,5.944949E-2,-1.5674328E-2,9.913058E-3,-2.7085101E-2],"split_indices":[59,13,60,29,5,13,78,0,0,0,0,0,0,0,0],"split_type":[0,0,0,0,0,0,0,0,0,0,0,0,0,0,0],"sum_hessian":[9.2830055E1,2.432662E1,6.850343E1,1.5858345E1,8.468275E0,2.3542767E0,6.6149155E1,1.4318237E1,1.5401071E0,7.366311E0,1.1019642E0,1.0296125E0,1.3246641E0,1.064445E0,6.508471E1],"tree_param":{"num_deleted":"0","num_feature":"80","num_nodes":"15","size_leaf_vector":"1"}},{"base_weights":[3.1614386E-2,-5.0936055E-1,1.0633719E0,-2.7037753E-2,2.609322E-1,-4.2340074E-2,1.6859025E0,3.5831004E-2,-1.46990735E-2,-4.1564727E-1,8.8548705E-2,-1.948585E-2,1.9757603E0,9.577205E-3,-2.4894385E-2,-1.7146312E-2,2.2168906E0,-1.8912634E-3,2.514753E0,3.206139E-2,1.3095514E-1],"categories":[],"categories_nodes":[],"categories_segments":[],"categories_sizes":[],"default_left":[0,0,0,0,0,0,0,0,0,0,0,0,0,0,0,0,0,0,0,0,0],"id":47,"left_children":[1,3,5,-1,7,9,11,-1,-1,13,-1,-1,15,-1,-1,-1,17,-1,19,-1,-1],"loss_changes":[5.296936E1,1.6476288E0,2.2534134E1,0E0,9.981297E-1,9.353554E0,1.33459015E1,0E0,0E0,6.629797E-1,0E0,0E0,1.1107193E1,0E0,0E0,0E0,1.1443062E1,0E0,1.2413788E0,0E0,0E0],"parents":[2147483647,0,0,1,1,2,2,4,4,5,5,6,6,9,9,12,12,16,16,18,18],"right_children":[2,4,6,-1,8,10,12,-1,-1,14,-1,-1,16,-1,-1,-1,18,-1,20,-1,-1],"split_conditions":[1.8989073E1,3.686244E-1,2.796697E-1,-2.7037753E-2,6.668515E-3,1.3253485E2,-3.4841125E1,3.5831004E-2,-1.46990735E-2,1.3988389E1,8.8548705E-2,-1.948585E-2,-9.317066E1,9.577205E-3,-2.4894385E-2,-1.7146312E-2,3.4641106E0,-1.8912634E-3,9.263935E0,3.206139E-2,1.3095514E-1],"split_indices":[53,38,34,0,67,13,3,0,0,14,0,0,2,0,0,0,62,0,50,0,0],"split_type":[0,0,0,0,0,0,0,0,0,0,0,0,0,0,0,0,0,0,0,0,0],"sum_hessian":[9.2930405E1,6.1297165E1,3.1633238E1,5.9183056E1,2.1141083E0,1.1730326E1,1.9902912E1,1.0008309E0,1.1132776E0,1.0366876E1,1.3634496E0,2.3966227E0,1.750629E1,1.0780942E0,9.288782E0,1.609295E0,1.5896995E1,1.9569052E0,1.3940089E1,1.1124178E0,1.2827672E1],"tree_param":{"num_deleted":"0","num_feature":"80","num_nodes":"21","size_leaf_vector":"1"}},{"base_weights":[3.145962E-2,-4.3193242E-1,1.6146951E0,-4.8538768E-1,5.4819953E-2,2.2872016E0,-5.3317226E-2,3.2224637E-2,-5.130799E-1,1.04680685E-2,1.2114129E-1,6.0018726E-2,-2.3066558E-2,-2.707614E-2,1.2240226E-1,-1.738564E-2,3.379901E-2],"categories":[],"categories_nodes":[],"categories_segments":[],"categories_sizes":[],"default_left":[0,0,0,0,0,0,0,0,0,0,0,0,0,0,0,0,0],"id":48,"left_children":[1,3,5,7,-1,9,11,-1,13,-1,-1,-1,-1,-1,15,-1,-1],"loss_changes":[6.822912E1,6.4140253E0,2.373732E1,2.5288982E0,0E0,3.7271729E0,4.147846E0,0E0,1.315834E0,0E0,0E0,0E0,0E0,0E0,1.2180653E0,0E0,0E0],"parents":[2147483647,0,0,1,1,2,2,3,3,5,5,6,6,8,8,14,14],"right_children":[2,4,6,8,-1,10,12,-1,14,-1,-1,-1,-1,-1,16,-1,-1],"split_conditions":[6.014338E-1,6.5020764E-1,1.1357189E1,7.7719007E0,5.4819953E-2,-1.4333017E0,1.9135308E-1,3.2224637E-2,1.9434679E1,1.04680685E-2,1.2114129E-1,6.0018726E-2,-2.3066558E-2,-2.707614E-2,-6.1205048E1,-1.738564E-2,3.379901E-2],"split_indices":[29,31,50,51,0,12,41,0,9,0,0,0,0,0,2,0,0],"split_type":[0,0,0,0,0,0,0,0,0,0,0,0,0,0,0,0,0],"sum_hessian":[9.104782E1,7.0995544E1,2.0052273E1,6.925565E1,1.7398949E0,1.4026054E1,6.0262175E0,1.1239393E0,6.8131714E1,1.0152667E0,1.3010788E1,1.0028372E0,5.0233803E0,6.535444E1,2.7772753E0,1.7029555E0,1.0743198E0],"tree_param":{"num_deleted":"0","num_feature":"80","num_nodes":"17","size_leaf_vector":"1"}},{"base_weights":[3.547914E-2,8.246134E-1,-3.5660216E-1,-4.3672782E-1,1.6707181E0,-4.4191357E-1,6.596085E-1,-2.5338912E-2,1.0302237E-2,2.1389992E0,-2.1216322E-2,-5.0490105E-1,3.4414303E-1,-2.048157E-2,1.0319556E-1,1.2662508E-1,-1.8697422E-2,-2.6977602E-2,-2.2101521E-2,5.8588266E-2,-1.953969E-2,-2.0233307E-2,3.4607466E-2],"categories":[],"categories_nodes":[],"categories_segments":[],"categories_sizes":[],"default_left":[0,0,0,0,0,0,0,0,0,0,0,0,0,0,0,0,0,0,0,0,0,0,0],"id":49,"left_children":[1,3,5,7,9,11,13,-1,-1,15,-1,17,19,-1,-1,-1,-1,-1,21,-1,-1,-1,-1],"loss_changes":[2.9666437E1,3.468097E1,5.8502636E0,7.1520424E-1,1.9790913E1,3.1321888E0,8.904385E0,0E0,0E0,1.6666702E1,0E0,9.2031765E-1,3.5158713E0,0E0,0E0,0E0,0E0,0E0,1.5846533E0,0E0,0E0,0E0,0E0],"parents":[2147483647,0,0,1,1,2,2,3,3,4,4,5,5,6,6,9,9,11,11,12,12,18,18],"right_children":[2,4,6,8,10,12,14,-1,-1,16,-1,18,20,-1,-1,-1,-1,-1,22,-1,-1,-1,-1],"split_conditions":[4.3005165E-2,8.96687E0,5.516852E1,5.5770462E1,1.5286636E1,1.7420332E1,4.6919546E-1,-2.5338912E-2,1.0302237E-2,1.5622208E1,-2.1216322E-2,1.7539265E1,-3.230061E0,-2.048157E-2,1.0319556E-1,1.2662508E-1,-1.8697422E-2,-2.6977602E-2,1.2659259E1,5.8588266E-2,-1.953969E-2,-2.0233307E-2,3.4607466E-2],"split_indices":[64,19,14,3,2,2,26,0,0,17,0,50,12,0,0,0,0,0,19,0,0,0,0],"split_type":[0,0,0,0,0,0,0,0,0,0,0,0,0,0,0,0,0,0,0,0,0,0,0],"sum_hessian":[9.393187E1,3.0812664E1,6.311921E1,1.2565027E1,1.8247637E1,5.875208E1,4.3671308E0,1.1521022E1,1.0440052E0,1.4896919E1,3.3507175E0,5.4724617E1,4.02746E0,2.8814726E0,1.4856584E0,1.2873308E1,2.023612E0,5.0950317E1,3.7743015E0,1.6147231E0,2.412737E0,2.740099E0,1.0342027E0],"tree_param":{"num_deleted":"0","num_feature":"80","num_nodes":"23","size_leaf_vector":"1"}},{"base_weights":[4.545388E-2,1.2361548E0,-4.367051E-1,1.897095E0,-2.4199735E-2,-2.698022E-2,1.2397271E0,1.1171641E-1,-1.9604651E-2,-1.4963279E-2,9.771466E-2],"categories":[],"categories_nodes":[],"categories_segments":[],"categories_sizes":[],"default_left":[0,0,0,0,0,0,0,0,0,0,0],"id":50,"left_children":[1,3,5,7,-1,-1,9,-1,-1,-1,-1],"loss_changes":[5.3711998E1,3.1564407E1,1.2168327E1,1.6066154E1,0E0,0E0,5.1578093E0,0E0,0E0,0E0,0E0],"parents":[2147483647,0,0,1,1,2,2,3,3,6,6],"right_children":[2,4,6,8,-1,-1,10,-1,-1,-1,-1],"split_conditions":[-1.1665744E1,1.7602839E1,3.5533494E-1,5.1685035E-1,-2.4199735E-2,-2.698022E-2,4.7339005E0,1.1171641E-1,-1.9604651E-2,-1.4963279E-2,9.771466E-2],"split_indices":[5,15,47,36,0,0,2,0,0,0,0],"split_type":[0,0,0,0,0,0,0,0,0,0,0],"sum_hessian":[9.161715E1,2.5955572E1,6.5661575E1,1.867654E1,7.2790318E0,6.2503254E1,3.1583214E0,1.6299355E1,2.3771853E0,1.185738E0,1.9725834E0],"tree_param":{"num_deleted":"0","num_feature":"80","num_nodes":"11","size_leaf_vector":"1"}},{"base_weights":[-1.5296386E-2,8.1953573E-1,-4.298115E-1,-4.4438264E-1,1.8365322E0,-5.2072E-1,2.1732645E-1,-2.5455132E-2,9.968637E-3,-1.8375779E-2,2.1473227E0,-1.3800251E-1,-2.6903888E-2,-2.2693325E-2,1.1813709E0,7.873013E-3,1.14885606E-1,9.945204E-3,-1.7270489E-2,-1.3909838E-2,9.154833E-2],"categories":[],"categories_nodes":[],"categories_segments":[],"categories_sizes":[],"default_left":[0,0,0,0,0,0,0,0,0,0,0,0,0,0,0,0,0,0,0,0,0],"id":51,"left_children":[1,3,5,7,9,11,13,-1,-1,-1,15,17,-1,-1,19,-1,-1,-1,-1,-1,-1],"loss_changes":[3.238754E1,4.0739033E1,3.7909613E0,7.1201825E-1,1.2711773E1,2.9184246E-1,5.975258E0,0E0,0E0,0E0,4.246872E0,3.2975894E-1,0E0,0E0,4.0437803E0,0E0,0E0,0E0,0E0,0E0,0E0],"parents":[2147483647,0,0,1,1,2,2,3,3,4,4,5,5,6,6,10,10,11,11,14,14],"right_children":[2,4,6,8,10,12,14,-1,-1,-1,16,18,-1,-1,20,-1,-1,-1,-1,-1,-1],"split_conditions":[6.81259E-2,3.6626623E0,5.498983E-1,2.5843296E1,2.5247391E-2,2.483095E0,9.86507E0,-2.5455132E-2,9.968637E-3,-1.8375779E-2,1.1504675E1,4.2196644E1,-2.6903888E-2,-2.2693325E-2,-3.2915164E2,7.873013E-3,1.14885606E-1,9.945204E-3,-1.7270489E-2,-1.3909838E-2,9.154833E-2],"split_indices":[77,63,34,14,65,61,51,0,0,0,50,13,0,0,0,0,0,0,0,0,0],"split_type":[0,0,0,0,0,0,0,0,0,0,0,0,0,0,0,0,0,0,0,0,0],"sum_hessian":[9.157403E1,3.0058735E1,6.151529E1,1.3653399E1,1.6405336E1,5.4109463E1,7.4058275E0,1.2596206E1,1.0571932E0,2.0048583E0,1.4400477E1,2.7359369E0,5.1373528E1,4.6780515E0,2.727776E0,1.1557204E0,1.3244757E1,1.0581329E0,1.677804E0,1.0162089E0,1.7115672E0],"tree_param":{"num_deleted":"0","num_feature":"80","num_nodes":"21","size_leaf_vector":"1"}},{"base_weights":[-2.7850328E-2,-2.6947303E-2,8.396582E-1,-3.6901516E-1,1.5834016E0,-2.5287822E-2,2.0942748E-2,-2.3535135E-1,1.9967935E0,-2.0504475E-2,1.0962976E-2,1.6835941E-2,1.0823313E-1],"categories":[],"categories_nodes":[],"categories_segments":[],"categories_sizes":[],"default_left":[0,0,0,0,0,0,0,0,0,0,0,0,0],"id":52,"left_children":[1,-1,3,5,7,-1,-1,9,11,-1,-1,-1,-1],"loss_changes":[4.142193E1,0E0,3.1730593E1,1.721144E0,1.6738789E1,0E0,0E0,4.7931588E-1,4.213768E0,0E0,0E0,0E0,0E0],"parents":[2147483647,0,0,2,2,3,3,4,4,7,7,8,8],"right_children":[2,-1,4,6,8,-1,-1,10,12,-1,-1,-1,-1],"split_conditions":[3.641971E1,-2.6947303E-2,8.115868E-2,3.3506447E-1,-3.2923884E0,-2.5287822E-2,2.0942748E-2,3.409148E-1,3.2769532E0,-2.0504475E-2,1.0962976E-2,1.6835941E-2,1.0823313E-1],"split_indices":[15,0,64,38,7,0,0,47,58,0,0,0,0],"split_type":[0,0,0,0,0,0,0,0,0,0,0,0,0],"sum_hessian":[9.140248E1,5.7754784E1,3.3647694E1,1.3009505E1,2.0638187E1,1.1390638E1,1.6188668E0,3.9019434E0,1.6736244E1,2.8893147E0,1.0126289E0,1.8130131E0,1.4923231E1],"tree_param":{"num_deleted":"0","num_feature":"80","num_nodes":"13","size_leaf_vector":"1"}},{"base_weights":[3.297822E-2,-3.822652E-1,1.7272577E0,-5.1087457E-1,7.6588213E-1,2.0232847E0,-1.8821072E-2,-2.6993755E-2,3.1769846E-2,1.7288798E0,-2.1180188E-2,2.1705973E0,6.553918E-3,-1.8961005E-2,3.2276925E-2,2.706785E-2,1.0167395E-1,3.0069334E-2,1.13001764E-1],"categories":[],"categories_nodes":[],"categories_segments":[],"categories_sizes":[],"default_left":[0,0,0,0,0,0,0,0,0,0,0,0,0,0,0,0,0,0,0],"id":53,"left_children":[1,3,5,7,9,11,-1,-1,13,15,-1,17,-1,-1,-1,-1,-1,-1,-1],"loss_changes":[6.501689E1,1.1360842E1,1.2087788E1,1.0778999E0,9.762432E0,4.203499E0,0E0,0E0,1.3456283E0,5.461321E-1,0E0,7.28302E-1,0E0,0E0,0E0,0E0,0E0,0E0,0E0],"parents":[2147483647,0,0,1,1,2,2,3,3,4,4,5,5,8,8,9,9,11,11],"right_children":[2,4,6,8,10,12,-1,-1,14,16,-1,18,-1,-1,-1,-1,-1,-1,-1],"split_conditions":[1.9611279E1,6.9097576E0,5.351607E0,1.1903777E1,8.052042E0,4.9028847E1,-1.8821072E-2,-2.6993755E-2,3.533204E0,3.6716905E-1,-2.1180188E-2,2.0255718E1,6.553918E-3,-1.8961005E-2,3.2276925E-2,2.706785E-2,1.0167395E-1,3.0069334E-2,1.13001764E-1],"split_indices":[52,61,3,8,22,14,0,0,58,37,0,52,0,0,0,0,0,0,0],"split_type":[0,0,0,0,0,0,0,0,0,0,0,0,0,0,0,0,0,0,0],"sum_hessian":[9.0475624E1,7.328814E1,1.7187485E1,6.640487E1,6.883276E0,1.5100745E1,2.0867405E0,6.3040882E1,3.3639843E0,3.5531821E0,3.3300939E0,1.3873532E1,1.2272124E0,2.2437057E0,1.1202787E0,1.2922889E0,2.2608933E0,1.16459E0,1.2708942E1],"tree_param":{"num_deleted":"0","num_feature":"80","num_nodes":"19","size_leaf_vector":"1"}},{"base_weights":[3.1012325E-3,7.7038336E-1,-5.040382E-1,1.4392742E0,-2.5450084E-2,-1.9310142E-1,-2.68798E-2,2.0228534E0,8.901563E-2,-2.3017524E-2,3.5280086E-2,-1.48444325E-2,2.2028596E0,6.864912E-2,-3.3857962E-1,1.1771375E-1,7.564687E-3,9.873849E-3,-2.3076298E-2],"categories":[],"categories_nodes":[],"categories_segments":[],"categories_sizes":[],"default_left":[0,0,0,0,0,0,0,0,0,0,0,0,0,0,0,0,0,0,0],"id":54,"left_children":[1,3,5,7,-1,9,-1,11,13,-1,-1,-1,15,-1,17,-1,-1,-1,-1],"loss_changes":[3.6588333E1,3.275193E1,4.8692703E-1,1.9386608E1,0E0,2.0241957E0,0E0,7.8745575E0,5.153176E0,0E0,0E0,0E0,4.665436E0,0E0,5.662084E-1,0E0,0E0,0E0,0E0],"parents":[2147483647,0,0,1,1,2,2,3,3,5,5,7,7,8,8,12,12,14,14],"right_children":[2,4,6,8,-1,10,-1,12,14,-1,-1,-1,16,-1,18,-1,-1,-1,-1],"split_conditions":[1.5457357E-2,3.830918E1,1.5557988E1,2.870228E-1,-2.5450084E-2,3.7293212E0,-2.68798E-2,-5.86251E-1,3.5967495E0,-2.3017524E-2,3.5280086E-2,-1.48444325E-2,1.5975756E1,6.864912E-2,2.6051307E-1,1.1771375E-1,7.564687E-3,9.873849E-3,-2.3076298E-2],"split_indices":[66,3,55,43,0,58,0,5,60,0,0,0,2,0,46,0,0,0,0],"split_type":[0,0,0,0,0,0,0,0,0,0,0,0,0,0,0,0,0,0,0],"sum_hessian":[9.203075E1,3.6415874E1,5.561487E1,2.3831347E1,1.2584527E1,6.0754805E0,4.953939E1,1.6291897E1,7.5394497E0,5.058874E0,1.0166059E0,1.126419E0,1.5165478E1,1.3312085E0,6.208241E0,1.3985716E1,1.1797619E0,1.0451391E0,5.163102E0],"tree_param":{"num_deleted":"0","num_feature":"80","num_nodes":"19","size_leaf_vector":"1"}},{"base_weights":[-1.450767E-3,7.69969E-1,-5.208291E-1,-5.1120434E-2,1.8953445E0,-5.443496E-2,-2.691106E-2,-4.1755125E-1,7.591053E-2,-1.7999085E-2,2.2242649E0,1.00950925E-2,-1.4217712E-2,3.534968E-2,-2.5983667E-2,2.9340548E-2,1.16592504E-1],"categories":[],"categories_nodes":[],"categories_segments":[],"categories_sizes":[],"default_left":[0,0,0,0,0,0,0,0,0,0,0,0,0,0,0,0,0],"id":55,"left_children":[1,3,5,7,9,11,-1,13,-1,-1,15,-1,-1,-1,-1,-1,-1],"loss_changes":[3.7247368E1,3.4662415E1,4.213581E-1,1.36307955E1,1.2525932E1,2.4069309E-1,0E0,2.5616956E0,0E0,0E0,1.0862503E0,0E0,0E0,0E0,0E0,0E0,0E0],"parents":[2147483647,0,0,1,1,2,2,3,3,4,4,5,5,7,7,10,10],"right_children":[2,4,6,8,10,12,-1,14,-1,-1,16,-1,-1,-1,-1,-1,-1],"split_conditions":[1.0083629E-2,1.4242897E1,1.4576995E1,6.445175E1,2.3649484E-1,2.6773386E-2,-2.691106E-2,1.3119192E1,7.591053E-2,-1.7999085E-2,3.0261979E-1,1.00950925E-2,-1.4217712E-2,3.534968E-2,-2.5983667E-2,2.9340548E-2,1.16592504E-1],"split_indices":[67,16,55,3,40,78,0,54,0,0,33,0,0,0,0,0,0],"split_type":[0,0,0,0,0,0,0,0,0,0,0,0,0,0,0,0,0],"sum_hessian":[9.096442E1,3.6407207E1,5.455721E1,2.1601229E1,1.480598E1,2.1097975E0,5.244741E1,1.8107216E1,3.4940128E0,1.8724712E0,1.2933509E1,1.0552065E0,1.0545911E0,1.0143551E0,1.7092861E1,1.1953027E0,1.1738206E1],"tree_param":{"num_deleted":"0","num_feature":"80","num_nodes":"17","size_leaf_vector":"1"}},{"base_weights":[-3.6569536E-2,1.1722972E0,-4.941854E-1,1.8595653E0,-2.4048885E-2,-5.244087E-1,3.3661734E-2,1.1117648E-1,-1.3538231E-1,-2.6993295E-2,1.0999209E-2,-1.7172612E-2,1.0438715E-2],"categories":[],"categories_nodes":[],"categories_segments":[],"categories_sizes":[],"default_left":[0,0,0,0,0,0,0,0,0,0,0,0,0],"id":56,"left_children":[1,3,5,7,-1,9,-1,-1,11,-1,-1,-1,-1],"loss_changes":[4.9606377E1,2.888343E1,2.646182E0,1.30840645E1,0E0,8.5417366E-1,0E0,0E0,3.3371943E-1,0E0,0E0,0E0,0E0],"parents":[2147483647,0,0,1,1,2,2,3,3,5,5,8,8],"right_children":[2,4,6,8,-1,10,-1,-1,12,-1,-1,-1,-1],"split_conditions":[3.3478007E0,5.2311087E-1,2.1362244E1,2.2534779E1,-2.4048885E-2,7.390017E-1,3.3661734E-2,1.1117648E-1,1.5423215E1,-2.6993295E-2,1.0999209E-2,-1.7172612E-2,1.0438715E-2],"split_indices":[59,27,6,14,0,34,0,0,53,0,0,0,0],"split_type":[0,0,0,0,0,0,0,0,0,0,0,0,0],"sum_hessian":[8.762499E1,2.363295E1,6.399204E1,1.6605324E1,7.0276265E0,6.2914055E1,1.077983E0,1.3946333E1,2.6589913E0,6.1903397E1,1.0106587E0,1.6584023E0,1.000589E0],"tree_param":{"num_deleted":"0","num_feature":"80","num_nodes":"13","size_leaf_vector":"1"}},{"base_weights":[-7.2092466E-2,-5.2309984E-1,7.737555E-1,-2.6970876E-2,1.0087892E-2,2.544168E-1,1.654263E0,1.3206838E0,-1.5672958E-1,-1.6711276E-2,1.985245E0,1.0081755E-1,-1.7098498E-2,-4.3101034E-1,6.388027E-1,3.7781578E-2,1.06804386E-1,-2.5216935E-2,1.0587565E-2,8.415239E-2,-1.8770652E-2],"categories":[],"categories_nodes":[],"categories_segments":[],"categories_sizes":[],"default_left":[0,0,0,0,0,0,0,0,0,0,0,0,0,0,0,0,0,0,0,0,0],"id":57,"left_children":[1,3,5,-1,-1,7,9,11,13,-1,15,-1,-1,17,19,-1,-1,-1,-1,-1,-1],"loss_changes":[3.5250423E1,8.2055473E-1,1.4289669E1,0E0,0E0,9.595802E0,8.398838E0,7.7058325E0,3.8429856E0,0E0,2.8149796E-1,0E0,0E0,7.0799994E-1,5.498191E0,0E0,0E0,0E0,0E0,0E0,0E0],"parents":[2147483647,0,0,1,1,2,2,5,5,6,6,7,7,8,8,10,10,13,13,14,14],"right_children":[2,4,6,-1,-1,8,10,12,14,-1,16,-1,-1,18,20,-1,-1,-1,-1,-1,-1],"split_conditions":[1.8780306E1,1.2768366E1,1.9587288E-2,-2.6970876E-2,1.0087892E-2,-1.1127283E1,2.4300893E-1,1.0716867E2,3.2139072E1,-1.6711276E-2,2.8908843E-1,1.0081755E-1,-1.7098498E-2,3.7246922E-1,9.107227E0,3.7781578E-2,1.06804386E-1,-2.5216935E-2,1.0587565E-2,8.415239E-2,-1.8770652E-2],"split_indices":[53,51,68,0,0,10,36,1,55,0,35,0,0,39,23,0,0,0,0,0,0],"split_type":[0,0,0,0,0,0,0,0,0,0,0,0,0,0,0,0,0,0,0,0,0],"sum_hessian":[9.03425E1,5.917296E1,3.116954E1,5.812041E1,1.0525479E0,2.0416485E1,1.0753056E1,5.0660343E0,1.5350451E1,1.5330325E0,9.220023E0,3.4216564E0,1.6443778E0,1.1755607E1,3.5948446E0,1.6641221E0,7.555901E0,1.0745125E1,1.0104823E0,1.4462823E0,2.1485622E0],"tree_param":{"num_deleted":"0","num_feature":"80","num_nodes":"21","size_leaf_vector":"1"}},{"base_weights":[-9.992998E-3,-3.8588697E-1,1.8618844E0,1.3509533E0,-5.130874E-1,2.1903822E0,-1.7945008E-2,-1.5532486E-2,9.756919E-2,-5.267906E-1,1.0677288E-2,3.318428E-2,1.13336734E-1,-2.7032971E-2,8.720239E-3],"categories":[],"categories_nodes":[],"categories_segments":[],"categories_sizes":[],"default_left":[0,0,0,0,0,0,0,0,0,0,0,0,0,0,0],"id":58,"left_children":[1,3,5,7,9,11,-1,-1,-1,13,-1,-1,-1,-1,-1],"loss_changes":[6.3780563E1,1.7365345E1,1.1845341E1,6.0184946E0,8.1985474E-1,5.139923E-2,0E0,0E0,0E0,7.751541E-1,0E0,0E0,0E0,0E0,0E0],"parents":[2147483647,0,0,1,1,2,2,3,3,4,4,5,5,9,9],"right_children":[2,4,6,8,10,12,-1,-1,-1,14,-1,-1,-1,-1,-1],"split_conditions":[6.5020764E-1,2.815995E-2,1.2679485E1,3.1214695E1,7.0344985E-1,-3.1175113E0,-1.7945008E-2,-1.5532486E-2,9.756919E-2,7.1530455E-1,1.0677288E-2,3.318428E-2,1.13336734E-1,-2.7032971E-2,8.720239E-3],"split_indices":[31,64,50,3,35,11,0,0,0,28,0,0,0,0,0],"split_type":[0,0,0,0,0,0,0,0,0,0,0,0,0,0,0],"sum_hessian":[8.862426E1,7.446475E1,1.4159508E1,4.4249E0,7.0039856E1,1.2346854E1,1.8126535E0,1.3026441E0,3.1222558E0,6.901339E1,1.0264666E0,1.0497177E0,1.1297136E1,6.789937E1,1.1140212E0],"tree_param":{"num_deleted":"0","num_feature":"80","num_nodes":"15","size_leaf_vector":"1"}},{"base_weights":[-3.1616732E-2,7.50802E-1,-3.8547483E-1,1.6122105E0,-4.303817E-1,-4.8555768E-1,2.608003E-1,-1.9766238E-2,1.9930329E0,1.0815268E-2,-2.5181184E-2,-5.200864E-1,2.534884E-1,7.569958E-2,-2.3314264E-2,1.1150514E-1,-1.5237346E-2,-2.689412E-2,-1.1546199E-1,-1.4632465E-2,3.5447802E-2,1.0827415E-2,-1.6648978E-2],"categories":[],"categories_nodes":[],"categories_segments":[],"categories_sizes":[],"default_left":[0,0,0,0,0,0,0,0,0,0,0,0,0,0,0,0,0,0,0,0,0,0,0],"id":59,"left_children":[1,3,5,7,9,11,13,-1,15,-1,-1,17,19,-1,-1,-1,-1,-1,21,-1,-1,-1,-1],"loss_changes":[2.5647482E1,3.0060501E1,4.248618E0,1.3708939E1,7.228348E-1,1.548912E0,9.085276E0,0E0,8.50835E0,0E0,0E0,3.2227135E-1,9.9127764E-1,0E0,0E0,0E0,0E0,0E0,3.264716E-1,0E0,0E0,0E0,0E0],"parents":[2147483647,0,0,1,1,2,2,3,3,4,4,5,5,6,6,8,8,11,11,12,12,18,18],"right_children":[2,4,6,8,10,12,14,-1,16,-1,-1,18,20,-1,-1,-1,-1,-1,22,-1,-1,-1,-1],"split_conditions":[4.3005165E-2,1.1557686E0,1.6424511E1,8.96687E0,1.472333E1,1.4123443E-1,3.794662E0,-1.9766238E-2,1.5286636E1,1.0815268E-2,-2.5181184E-2,1.7420332E1,1.0482614E1,7.569958E-2,-2.3314264E-2,1.1150514E-1,-1.5237346E-2,-2.689412E-2,2.187641E0,-1.4632465E-2,3.5447802E-2,1.0827415E-2,-1.6648978E-2],"split_indices":[64,12,50,19,14,65,61,0,2,0,0,2,50,0,0,0,0,0,61,0,0,0,0],"split_type":[0,0,0,0,0,0,0,0,0,0,0,0,0,0,0,0,0,0,0,0,0,0,0],"sum_hessian":[9.058993E1,2.7862082E1,6.2727848E1,1.5900976E1,1.1961105E1,5.4531696E1,8.196152E0,2.5293307E0,1.3371645E1,1.0181445E0,1.0942961E1,5.2380707E1,2.1509883E0,2.6119568E0,5.584195E0,1.2147771E1,1.2238743E0,4.9858524E1,2.5221856E0,1.1406927E0,1.0102957E0,1.0001111E0,1.5220745E0],"tree_param":{"num_deleted":"0","num_feature":"80","num_nodes":"23","size_leaf_vector":"1"}},{"base_weights":[-8.563365E-3,1.0121843E0,-4.9170348E-1,1.675291E0,-4.0148872E-1,-2.6878214E-2,3.9830607E-1,-1.7145593E-1,9.972661E-2,-2.4501337E-2,9.2649255E-3,6.0129043E-2,-1.7617648E-2,-1.8395087E-2,1.0229179E-2],"categories":[],"categories_nodes":[],"categories_segments":[],"categories_sizes":[],"default_left":[0,0,0,0,0,0,0,0,0,0,0,0,0,0,0],"id":60,"left_children":[1,3,5,7,9,-1,11,13,-1,-1,-1,-1,-1,-1,-1],"loss_changes":[4.600472E1,2.8768358E1,2.7979717E0,1.248394E1,6.298883E-1,0E0,2.6433785E0,3.6752462E-1,0E0,0E0,0E0,0E0,0E0,0E0,0E0],"parents":[2147483647,0,0,1,1,2,2,3,3,4,4,6,6,7,7],"right_children":[2,4,6,8,10,-1,12,14,-1,-1,-1,-1,-1,-1,-1],"split_conditions":[-7.82836E0,5.514323E-2,3.5533494E-1,-9.9443655E0,8.46967E-2,-2.6878214E-2,-7.170139E-3,8.222905E0,9.972661E-2,-2.4501337E-2,9.2649255E-3,6.0129043E-2,-1.7617648E-2,-1.8395087E-2,1.0229179E-2],"split_indices":[5,64,47,11,71,0,68,22,0,0,0,0,0,0,0],"split_type":[0,0,0,0,0,0,0,0,0,0,0,0,0,0,0],"sum_hessian":[9.127561E1,2.8971487E1,6.2304123E1,1.9595045E1,9.376442E0,5.9627605E1,2.6765163E0,2.956309E0,1.6638737E1,8.29043E0,1.0860115E0,1.0014764E0,1.6750399E0,1.9560797E0,1.0002294E0],"tree_param":{"num_deleted":"0","num_feature":"80","num_nodes":"15","size_leaf_vector":"1"}},{"base_weights":[-2.1567862E-3,1.4836973E0,-2.02264E-1,-1.8408068E-2,9.646066E-2,-3.1942332E-1,8.7989844E-2,-5.039729E-1,1.6059248E-1,-2.6847914E-2,-3.9417014E-2,-4.4441694E-1,1.1113167E0,-2.0215807E-2,3.15478E-2,-2.539961E-2,1.0422244E-2,1.7146763E0,-1.9469535E-2,8.002388E-3,1.0045693E-1],"categories":[],"categories_nodes":[],"categories_segments":[],"categories_sizes":[],"default_left":[0,0,0,0,0,0,0,0,0,0,0,0,0,0,0,0,0,0,0,0,0],"id":61,"left_children":[1,3,5,-1,-1,7,-1,9,11,-1,13,15,17,-1,-1,-1,-1,19,-1,-1,-1],"loss_changes":[2.8064058E1,9.953085E0,1.968177E1,0E0,0E0,7.1088943E0,0E0,8.606281E-1,1.360231E1,0E0,1.4523333E0,7.135837E-1,8.951114E0,0E0,0E0,0E0,0E0,2.7501316E0,0E0,0E0,0E0],"parents":[2147483647,0,0,1,1,2,2,5,5,7,7,8,8,10,10,11,11,12,12,17,17],"right_children":[2,4,6,-1,-1,8,-1,10,12,-1,14,16,18,-1,-1,-1,-1,20,-1,-1,-1],"split_conditions":[-4.28932E1,-3.9129266E2,1.945981E2,-1.8408068E-2,9.646066E-2,5.2638024E-1,8.7989844E-2,6.1406165E-1,3.4811256E0,-2.6847914E-2,2.3807589E1,8.518069E-2,5.2825975E0,-2.0215807E-2,3.15478E-2,-2.539961E-2,1.0422244E-2,-5.9824026E-1,-1.9469535E-2,8.002388E-3,1.0045693E-1],"split_indices":[4,0,13,0,0,34,0,26,58,0,15,65,9,0,0,0,0,8,0,0,0],"split_type":[0,0,0,0,0,0,0,0,0,0,0,0,0,0,0,0,0,0,0,0,0],"sum_hessian":[9.237756E1,1.0202978E1,8.217458E1,2.0122721E0,8.190705E0,7.833426E1,3.8403246E0,5.6544815E1,2.1789444E1,5.265055E1,3.8942642E0,1.3641191E1,8.148253E0,2.7786572E0,1.1156069E0,1.2632906E1,1.0082849E0,5.7099776E0,2.438276E0,1.1550992E0,4.5548787E0],"tree_param":{"num_deleted":"0","num_feature":"80","num_nodes":"21","size_leaf_vector":"1"}},{"base_weights":[-5.622855E-2,-2.6884738E-2,8.447213E-1,-4.1563687E-1,1.4815801E0,-2.484814E-2,1.0632806E-2,-5.353296E-2,1.8348656E0,-2.0830302E-2,3.481513E-2,9.946487E-2,3.2843165E-3],"categories":[],"categories_nodes":[],"categories_segments":[],"categories_sizes":[],"default_left":[0,0,0,0,0,0,0,0,0,0,0,0,0],"id":62,"left_children":[1,-1,3,5,7,-1,-1,9,11,-1,-1,-1,-1],"loss_changes":[4.003642E1,0E0,2.6437258E1,6.973579E-1,1.1807125E1,0E0,0E0,1.6542302E0,4.672268E0,0E0,0E0,0E0,0E0],"parents":[2147483647,0,0,2,2,3,3,4,4,7,7,8,8],"right_children":[2,-1,4,6,8,-1,-1,10,12,-1,-1,-1,-1],"split_conditions":[3.641971E1,-2.6884738E-2,8.115868E-2,3.4293056E-1,3.3162098E0,-2.484814E-2,1.0632806E-2,9.666039E0,3.2967228E-1,-2.0830302E-2,3.481513E-2,9.946487E-2,3.2843165E-3],"split_indices":[15,0,64,47,58,0,0,24,46,0,0,0,0],"split_type":[0,0,0,0,0,0,0,0,0,0,0,0,0],"sum_hessian":[9.025017E1,5.9080715E1,3.116945E1,1.057958E1,2.058987E1,9.552178E0,1.0274023E0,4.010729E0,1.6579142E1,3.0016987E0,1.0090301E0,1.51337E1,1.4454405E0],"tree_param":{"num_deleted":"0","num_feature":"80","num_nodes":"13","size_leaf_vector":"1"}},{"base_weights":[-1.6974578E-2,-4.005651E-1,1.4111385E0,8.708947E-2,-4.820534E-1,3.48281E-1,1.8906304E0,-5.2397794E-1,5.012687E-1,-2.2269677E-2,8.403412E-2,9.988577E-2,2.6341408E-2,-2.6940156E-2,1.1082033E-2,5.931374E-2,-1.5606041E-2],"categories":[],"categories_nodes":[],"categories_segments":[],"categories_sizes":[],"default_left":[0,0,0,0,0,0,0,0,0,0,0,0,0,0,0,0,0],"id":63,"left_children":[1,3,5,-1,7,9,11,13,15,-1,-1,-1,-1,-1,-1,-1,-1],"loss_changes":[4.916066E1,1.3183115E1,9.026184E0,0E0,3.102974E0,8.292316E0,8.270683E-1,8.552723E-1,2.2247925E0,0E0,0E0,0E0,0E0,0E0,0E0,0E0,0E0],"parents":[2147483647,0,0,1,1,2,2,4,4,5,5,6,6,7,7,8,8],"right_children":[2,4,6,-1,8,10,12,14,16,-1,-1,-1,-1,-1,-1,-1,-1],"split_conditions":[8.279015E-2,2.056653E-2,1.9866125E1,8.708947E-2,8.423829E-2,-8.952161E-3,3.8079712E-1,3.8766417E-1,3.2230702E-1,-2.2269677E-2,8.403412E-2,9.988577E-2,2.6341408E-2,-2.6940156E-2,1.1082033E-2,5.931374E-2,-1.5606041E-2],"split_indices":[79,64,52,0,78,5,3,40,40,0,0,0,0,0,0,0,0],"split_type":[0,0,0,0,0,0,0,0,0,0,0,0,0,0,0,0,0],"sum_hessian":[8.770839E1,6.970514E1,1.8003252E1,1.8076153E0,6.789752E1,6.1336193E0,1.1869634E1,6.5569084E1,2.3284433E0,4.2611136E0,1.8725058E0,1.0574514E1,1.2951186E0,6.456275E1,1.0063308E0,1.0151165E0,1.3133268E0],"tree_param":{"num_deleted":"0","num_feature":"80","num_nodes":"17","size_leaf_vector":"1"}},{"base_weights":[-3.6309075E-2,9.6187156E-1,-3.4745714E-1,1.4249159E0,-3.1827196E-1,4.052668E-2,-5.165911E-1,-1.9390797E-2,1.7576772E0,-2.26091E-2,1.0863802E-2,-2.5128944E-2,5.8939E-1,9.375331E-3,-2.6814407E-2,-1.5352739E-3,1.02040306E-1,1.6566828E0,-2.3219546E-2,9.84117E-2,8.396096E-3],"categories":[],"categories_nodes":[],"categories_segments":[],"categories_sizes":[],"default_left":[0,0,0,0,0,0,0,0,0,0,0,0,0,0,0,0,0,0,0,0,0],"id":64,"left_children":[1,3,5,7,9,11,13,-1,15,-1,-1,-1,17,-1,-1,-1,-1,19,-1,-1,-1],"loss_changes":[2.8910402E1,1.3571493E1,4.672059E0,1.0594959E1,5.7844573E-1,6.9868674E0,7.861309E-1,0E0,7.184967E0,0E0,0E0,0E0,1.3842315E1,0E0,0E0,0E0,0E0,2.449524E0,0E0,0E0,0E0],"parents":[2147483647,0,0,1,1,2,2,3,3,4,4,5,5,6,6,8,8,12,12,17,17],"right_children":[2,4,6,8,10,12,14,-1,16,-1,-1,-1,18,-1,-1,-1,-1,20,-1,-1,-1],"split_conditions":[1.4297935E1,2.3242154E0,-2.0911205E1,-3.7181625E1,2.7339235E-1,1.0547526E1,1.3547659E1,-1.9390797E-2,3.2497077E0,-2.26091E-2,1.0863802E-2,-2.5128944E-2,1.5111109E-2,9.375331E-3,-2.6814407E-2,-1.5352739E-3,1.02040306E-1,5.036749E-1,-2.3219546E-2,9.84117E-2,8.396096E-3],"split_indices":[53,12,4,2,44,18,56,0,5,0,0,0,67,0,0,0,0,35,0,0,0],"split_type":[0,0,0,0,0,0,0,0,0,0,0,0,0,0,0,0,0,0,0,0,0],"sum_hessian":[9.1008545E1,2.1130224E1,6.987832E1,1.5434335E1,5.695889E0,2.1445024E1,4.8433296E1,2.3681703E0,1.3066165E1,4.681082E0,1.014807E0,1.0821437E1,1.0623588E1,1.0861979E0,4.73471E1,1.9077053E0,1.115846E1,4.993712E0,5.629875E0,3.8632028E0,1.1305091E0],"tree_param":{"num_deleted":"0","num_feature":"80","num_nodes":"21","size_leaf_vector":"1"}},{"base_weights":[-7.839313E-4,6.951906E-1,-5.0029624E-1,-4.436773E-1,1.3406992E0,-5.1795787E-1,8.921876E-3,-2.5422294E-2,1.0689061E-2,-2.2445977E-2,1.7508315E0,-6.409323E-2,-2.6815686E-2,2.0408835E0,-1.9124215E-2,-1.4931719E-2,1.1171178E-2,3.790142E-2,1.0610411E-1],"categories":[],"categories_nodes":[],"categories_segments":[],"categories_sizes":[],"default_left":[0,0,0,0,0,0,0,0,0,0,0,0,0,0,0,0,0,0,0],"id":65,"left_children":[1,3,5,7,9,11,-1,-1,-1,-1,13,15,-1,17,-1,-1,-1,-1,-1],"loss_changes":[3.2113888E1,2.8969809E1,7.370739E-1,7.352679E-1,1.9049854E1,4.0441608E-1,0E0,0E0,0E0,0E0,1.3433289E1,2.8136903E-1,0E0,2.8289795E-1,0E0,0E0,0E0,0E0,0E0],"parents":[2147483647,0,0,1,1,2,2,3,3,4,4,5,5,10,10,11,11,13,13],"right_children":[2,4,6,8,10,12,-1,-1,-1,-1,14,16,-1,18,-1,-1,-1,-1,-1],"split_conditions":[9.746732E-3,1.8366531E1,2.526986E1,7.087338E-1,3.9348314E0,8.0200243E-1,8.921876E-3,-2.5422294E-2,1.0689061E-2,-2.2445977E-2,1.8627161E1,6.2144446E0,-2.6815686E-2,2.4354285E-1,-1.9124215E-2,-1.4931719E-2,1.1171178E-2,3.790142E-2,1.0610411E-1],"split_indices":[67,14,7,35,57,63,0,0,0,0,54,23,0,49,0,0,0,0,0],"split_type":[0,0,0,0,0,0,0,0,0,0,0,0,0,0,0,0,0,0,0],"sum_hessian":[9.037432E1,3.7597576E1,5.2776745E1,1.37142515E1,2.3883324E1,5.1669117E1,1.1076276E0,1.2690696E1,1.0235558E0,4.435291E0,1.9448032E1,2.1830451E0,4.9486073E1,1.7158447E1,2.289585E0,1.1809888E0,1.0020564E0,1.6366439E0,1.5521804E1],"tree_param":{"num_deleted":"0","num_feature":"80","num_nodes":"19","size_leaf_vector":"1"}},{"base_weights":[-3.1595274E-3,1.3105488E0,-4.6875E-1,1.8840315E0,-2.3342488E-2,-5.2511156E-1,7.434989E-2,1.0137315E-1,-1.415728E-2,-2.6973432E-2,1.0122663E-2],"categories":[],"categories_nodes":[],"categories_segments":[],"categories_sizes":[],"default_left":[0,0,0,0,0,0,0,0,0,0,0],"id":66,"left_children":[1,3,5,7,-1,9,-1,-1,-1,-1,-1],"loss_changes":[5.7632153E1,2.6011925E1,8.448742E0,6.4303665E0,0E0,8.232212E-1,0E0,0E0,0E0,0E0,0E0],"parents":[2147483647,0,0,1,1,2,2,3,3,5,5],"right_children":[2,4,6,8,-1,10,-1,-1,-1,-1,-1],"split_conditions":[1.1367786E1,5.791583E-1,2.3277989E2,4.115431E1,-2.3342488E-2,1.9214077E1,7.434989E-2,1.0137315E-1,-1.415728E-2,-2.6973432E-2,1.0122663E-2],"split_indices":[52,29,1,13,0,10,0,0,0,0,0],"split_type":[0,0,0,0,0,0,0,0,0,0,0],"sum_hessian":[9.2219696E1,2.3656317E1,6.856338E1,1.7840147E1,5.8161697E0,6.735385E1,1.2095287E0,1.6793182E1,1.0469637E0,6.6304E1,1.049853E0],"tree_param":{"num_deleted":"0","num_feature":"80","num_nodes":"11","size_leaf_vector":"1"}},{"base_weights":[6.7557534E-3,-5.2043885E-1,8.658754E-1,-2.6871625E-2,1.0141481E-2,1.2093123E0,-1.8681875E-1,-6.911806E-2,1.7821975E0,3.4997225E-2,-2.3994172E-2,-2.4046153E-2,6.4895E-2,1.9348431E0,-1.4628439E-2,7.2978027E-3,2.0561295E0,3.5655346E-2,1.0850706E-1],